solver_type L2R_L2LOSS_SVC_DUAL
nr_class 2
label 1 0
nr_feature 12799
bias 0
w
-0.003584392604991042 
-0.002365693858796459 
0.001417039477345488 
-0.003755220822580411 
0.003579944033332888 
0 
0.001417039477345488 
0.003755220822580411 
-0.003584392604991042 
0.002365693858796459 
-0.006860031453655356 
-0.007725397521260768 
0.00494496816161864 
-0.01620037637322587 
0.02024795066706725 
0 
0.00494496816161864 
0.01620037637322587 
-0.006860031453655356 
0.007725397521260768 
-0.01097363472282976 
-0.006258311081430569 
0.001066416759943956 
-0.01766462694963471 
0.01994646777692551 
0 
0.001066416759943956 
0.01766462694963471 
-0.01097363472282976 
0.006258311081430569 
-0.005059401809836005 
0.0005539304970792627 
-0.007838681435182942 
-0.0008712978911742142 
-0.01123189025043773 
0 
-0.007838681435182942 
0.0008712978911742142 
-0.005059401809836005 
-0.0005539304970792627 
-0.007629595477692507 
0.0002132749212402794 
-0.008729299244014593 
-0.003841442862324423 
-0.006177379133807651 
0 
-0.008729299244014593 
0.003841442862324423 
-0.007629595477692507 
-0.0002132749212402794 
-0.006336399072534644 
-0.004346112396932609 
-0.003770154111578185 
-0.007011732705845845 
-0.001173146458596312 
0 
-0.003770154111578185 
0.007011732705845845 
-0.006336399072534644 
0.004346112396932609 
-0.008760893478533835 
-0.0006177992170924117 
-0.01087344317511836 
-0.004165967091020058 
-0.009905183548772281 
0 
-0.01087344317511836 
0.004165967091020058 
-0.008760893478533835 
0.0006177992170924117 
-0.004113585161340144 
0.00746080198405543 
-0.01089657832510873 
0.001762455120450821 
-0.007255765621616869 
0 
-0.01089657832510873 
-0.001762455120450821 
-0.004113585161340144 
-0.00746080198405543 
-0.0003150295619229215 
0.007464361810423313 
-0.007773255274439002 
0.008368127725100091 
-0.01504244747084329 
0 
-0.007773255274439002 
-0.008368127725100091 
-0.0003150295619229215 
-0.007464361810423313 
-0.008883167650679024 
-0.001620025842623922 
-0.007087907294116159 
-0.00923764913099813 
0.001015466615086682 
0 
-0.007087907294116159 
0.00923764913099813 
-0.008883167650679024 
0.001620025842623922 
-0.01095792007151109 
-0.00744205883578279 
0.002289334961137408 
-0.01672842975789768 
0.01725556170138657 
0 
0.002289334961137408 
0.01672842975789768 
-0.01095792007151109 
0.00744205883578279 
-0.01205106225364757 
-0.001813744456900958 
-0.01270143675757766 
-0.006943285573065165 
-0.01381897278854095 
0 
-0.01270143675757766 
0.006943285573065165 
-0.01205106225364757 
0.001813744456900958 
-0.003274401152688814 
-0.002426293256530861 
-0.004773798306174505 
-0.003802123329261128 
-0.002489372479112275 
0 
-0.004773798306174505 
0.003802123329261128 
-0.003274401152688814 
0.002426293256530861 
-0.005835639492517776 
-0.002147616577400955 
-0.003197180974885549 
-0.006531577926050125 
0.002223129478605399 
0 
-0.003197180974885549 
0.006531577926050125 
-0.005835639492517776 
0.002147616577400955 
0.0004074724596214274 
-0.002709886332481726 
0.000844682813056111 
-0.002244798536761964 
-0.0004749521545431512 
0 
0.000844682813056111 
0.002244798536761964 
0.0004074724596214274 
0.002709886332481726 
-0.005361033025441066 
0.005980358480768394 
-0.01883115700374372 
0.005552302407711394 
-0.02522280751561527 
0 
-0.01883115700374372 
-0.005552302407711394 
-0.005361033025441066 
-0.005980358480768394 
0.008654562268347323 
-0.01035459768659623 
0.01590448796262158 
-0.005523272518938808 
0.02071534392022318 
0 
0.01590448796262158 
0.005523272518938808 
0.008654562268347323 
0.01035459768659623 
-0.00712335028249524 
-0.009087248683186347 
0.006047754878029574 
-0.01490511336309249 
0.01999900836699056 
0 
0.006047754878029574 
0.01490511336309249 
-0.00712335028249524 
0.009087248683186347 
-0.002734987508122997 
-0.008013652497231389 
0.01203456091508839 
-0.01141421359394499 
0.02198221044954104 
0 
0.01203456091508839 
0.01141421359394499 
-0.002734987508122997 
0.008013652497231389 
-0.006875653321509155 
0.006391367131394656 
-0.01771374955086348 
0.004349355413473151 
-0.02363624050072674 
0 
-0.01771374955086348 
-0.004349355413473151 
-0.006875653321509155 
-0.006391367131394656 
-0.004447764234281048 
0.004982773549725907 
-0.01397423741641165 
0.002249843484038326 
-0.01271941956805031 
0 
-0.01397423741641165 
-0.002249843484038326 
-0.004447764234281048 
-0.004982773549725907 
-0.001655291370236322 
-0.00343650800215022 
0.003795282774258487 
-0.006850439291691831 
0.009332077500386315 
0 
0.003795282774258487 
0.006850439291691831 
-0.001655291370236322 
0.00343650800215022 
-0.004368737178010246 
-0.005171196574892019 
-0.002030768647781012 
-0.009906938087766 
0.00569326924215692 
0 
-0.002030768647781012 
0.009906938087766 
-0.004368737178010246 
0.005171196574892019 
-0.01298123240641817 
-0.001254250339455123 
-0.01698914148903216 
-0.005883538508518843 
-0.01581720718182188 
0 
-0.01698914148903216 
0.005883538508518843 
-0.01298123240641817 
0.001254250339455123 
0.001252623801269521 
-0.004230162429829367 
0.008715231477284808 
-0.00413556250191203 
0.01213441632367926 
0 
0.008715231477284808 
0.00413556250191203 
0.001252623801269521 
0.004230162429829367 
-0.002562127599862435 
-0.006843088735287279 
0.005276124018796709 
-0.006668670748661482 
0.008839996802802879 
0 
0.005276124018796709 
0.006668670748661482 
-0.002562127599862435 
0.006843088735287279 
-0.004896003469534425 
0.008463895266883114 
-0.0145826980775436 
0.0071188637313187 
-0.02182695543334729 
0 
-0.0145826980775436 
-0.0071188637313187 
-0.004896003469534425 
-0.008463895266883114 
0.002537707995258314 
0.007876331334921405 
-0.008660832767310512 
0.01321883366031282 
-0.02201041460658792 
0 
-0.008660832767310512 
-0.01321883366031282 
0.002537707995258314 
-0.007876331334921405 
0.005935640657951893 
0.001854385094652396 
0.003918788097268801 
0.003995350320443655 
0.004259890028267646 
0 
0.003918788097268801 
-0.003995350320443655 
0.005935640657951893 
-0.001854385094652396 
0.0009447277973373241 
-0.00442437739504772 
0.01247440857887115 
-0.01283807663995465 
0.03196713466288277 
0 
0.01247440857887115 
0.01283807663995465 
0.0009447277973373241 
0.00442437739504772 
0.0005179316081754781 
-0.008067250379453507 
0.007064581420613043 
-0.01405392054954969 
0.01957335607482271 
0 
0.007064581420613043 
0.01405392054954969 
0.0005179316081754781 
0.008067250379453507 
-0.00842448507558006 
0.003219563792777604 
-0.007572420474329313 
-0.007902426557004107 
0.006232853262779982 
0 
-0.007572420474329313 
0.007902426557004107 
-0.00842448507558006 
-0.003219563792777604 
0.001087569442848907 
-0.0008376025146616296 
0.002411196868332151 
0.002429567428048603 
-0.00269907752219311 
0 
0.002411196868332151 
-0.002429567428048603 
0.001087569442848907 
0.0008376025146616296 
-0.002507656723991892 
-0.006100562185274947 
0.01226901039697551 
-0.01208208722483299 
0.02575519375524463 
0 
0.01226901039697551 
0.01208208722483299 
-0.002507656723991892 
0.006100562185274947 
-0.007120802622584188 
-0.0116467429654907 
0.006559326415068855 
-0.0162700364983717 
0.01409810980732359 
0 
0.006559326415068855 
0.0162700364983717 
-0.007120802622584188 
0.0116467429654907 
-0.005550941157239512 
0.005777314948897699 
-0.008510821735900804 
0.00700236910355304 
-0.01996861169140879 
0 
-0.008510821735900804 
-0.00700236910355304 
-0.005550941157239512 
-0.005777314948897699 
0.004345975732133745 
-0.00105685403680994 
0.002345107045773132 
0.003496509192522948 
-0.002311141003137623 
0 
0.002345107045773132 
-0.003496509192522948 
0.004345975732133745 
0.00105685403680994 
-0.002079706009587858 
0.003757399183272143 
-0.006585190342643695 
0.00173902364381984 
-0.004035732682139659 
0 
-0.006585190342643695 
-0.00173902364381984 
-0.002079706009587858 
-0.003757399183272143 
0.002740121201811967 
-0.007400892686159799 
0.01055970845748538 
-0.005229047951631197 
0.01368323078361956 
0 
0.01055970845748538 
0.005229047951631197 
0.002740121201811967 
0.007400892686159799 
-0.0002062529136847509 
-0.007716039171242155 
-0.001496457352754406 
-0.005707860715450014 
-0.003690468382492225 
0 
-0.001496457352754406 
0.005707860715450014 
-0.0002062529136847509 
0.007716039171242155 
0.01028433126755584 
0.001872822075336074 
0.01160745851698951 
0.008851700156136937 
0.00882909233821892 
0 
0.01160745851698951 
-0.008851700156136937 
0.01028433126755584 
-0.001872822075336074 
-0.002613460132294243 
0.0003794247166036445 
0.003074022163241241 
-0.004861020530550121 
0.01148801300612476 
0 
0.003074022163241241 
0.004861020530550121 
-0.002613460132294243 
-0.0003794247166036445 
-0.01432859015742635 
-0.003701112788924395 
-0.008239098518388539 
-0.01621484841204524 
0.005193750593787518 
0 
-0.008239098518388539 
0.01621484841204524 
-0.01432859015742635 
0.003701112788924395 
-0.005632469631254164 
0.0002988999807608707 
-0.01267560652822755 
-0.001827381461462847 
-0.01665050833779984 
0 
-0.01267560652822755 
0.001827381461462847 
-0.005632469631254164 
-0.0002988999807608707 
0.007142511601161843 
-0.0006880510605894993 
0.01366326640373849 
-0.00108998882201283 
0.02066158780395724 
0 
0.01366326640373849 
0.00108998882201283 
0.007142511601161843 
0.0006880510605894993 
0.005487040603936932 
-0.001573187417263998 
0.01453018392664854 
-0.004351395711515147 
0.02502115195117996 
0 
0.01453018392664854 
0.004351395711515147 
0.005487040603936932 
0.001573187417263998 
-0.002751114186432601 
-0.007040775899591136 
0.002506036490490271 
-0.00964058394580526 
0.008064289495439894 
0 
0.002506036490490271 
0.00964058394580526 
-0.002751114186432601 
0.007040775899591136 
-0.003727928742538672 
-0.001400015447801243 
0.0003238790886207967 
-0.007306450601672338 
0.01138629720137796 
0 
0.0003238790886207967 
0.007306450601672338 
-0.003727928742538672 
0.001400015447801243 
-0.003495640841744419 
0.002702284971514693 
-0.01126938698456112 
0.003603762148646533 
-0.01661595650090003 
0 
-0.01126938698456112 
-0.003603762148646533 
-0.003495640841744419 
-0.002702284971514693 
-0.002938179171129601 
-0.01171109499280588 
0.01378358918349825 
-0.01270730836947224 
0.02094862793611537 
0 
0.01378358918349825 
0.01270730836947224 
-0.002938179171129601 
0.01171109499280588 
0.004273764211903658 
-0.009925126324356666 
0.01825751547462829 
-0.009998431415764708 
0.02949420089802788 
0 
0.01825751547462829 
0.009998431415764708 
0.004273764211903658 
0.009925126324356666 
-0.001980647449211819 
-0.0004013659693584297 
0.003311444754082669 
-0.002456236889591813 
0.005317120038528764 
0 
0.003311444754082669 
0.002456236889591813 
-0.001980647449211819 
0.0004013659693584297 
0.01167081064719711 
-0.001132923233143981 
0.01502765140471406 
0.005402645717633322 
0.01253199908833717 
0 
0.01502765140471406 
-0.005402645717633322 
0.01167081064719711 
0.001132923233143981 
0.005515710061144403 
0.002093416748703704 
0.007935531146978547 
0.0008357360530077734 
0.0133188496858556 
0 
0.007935531146978547 
-0.0008357360530077734 
0.005515710061144403 
-0.002093416748703704 
-0.0009021962248771069 
-0.003292878180572716 
0.003456233257458259 
-0.004911592012248943 
0.006119007405436402 
0 
0.003456233257458259 
0.004911592012248943 
-0.0009021962248771069 
0.003292878180572716 
0.004089869359564636 
-0.006609666163378829 
0.005873805836463157 
-0.00164404807875204 
0.0001601247906987685 
0 
0.005873805836463157 
0.00164404807875204 
0.004089869359564636 
0.006609666163378829 
0.006766068185961522 
0.001636092479398584 
0.00522309608898807 
0.005000420907714591 
0.005450334097945716 
0 
0.00522309608898807 
-0.005000420907714591 
0.006766068185961522 
-0.001636092479398584 
4.642334459972872e-06 
-0.008815274079660341 
0.01580014749421249 
-0.01173569556064736 
0.02726181088778903 
0 
0.01580014749421249 
0.01173569556064736 
4.642334459972872e-06 
0.008815274079660341 
0.003023500532256442 
0.0001191640425664499 
0.01010653486083348 
0.003347486138375544 
0.006388148811480318 
0 
0.01010653486083348 
-0.003347486138375544 
0.003023500532256442 
-0.0001191640425664499 
-0.001846432901539237 
0.006697080662453683 
-0.01246636405958817 
0.01009980045107578 
-0.02929302581203124 
0 
-0.01246636405958817 
-0.01009980045107578 
-0.001846432901539237 
-0.006697080662453683 
0.00388478641549696 
0.0003705028771079785 
0.001353049759944588 
0.006766032932250342 
-0.008929725865464011 
0 
0.001353049759944588 
-0.006766032932250342 
0.00388478641549696 
-0.0003705028771079785 
-0.0008042877247401517 
-0.01101555084891023 
0.01762623214002358 
-0.01175796520826366 
0.0246214714700038 
0 
0.01762623214002358 
0.01175796520826366 
-0.0008042877247401517 
0.01101555084891023 
0.01055821310673497 
-0.01197190131561867 
0.02760517250812477 
-0.005371432955333926 
0.0332008776477465 
0 
0.02760517250812477 
0.005371432955333926 
0.01055821310673497 
0.01197190131561867 
0.006031349111504599 
0.009304322032494034 
-0.003742342057662996 
0.007768385977311205 
-0.001023883017838517 
0 
-0.003742342057662996 
-0.007768385977311205 
0.006031349111504599 
-0.009304322032494034 
-0.007376477288778726 
0.004855749506637345 
-0.007235223915707769 
-0.003411626917251065 
-0.0003231138879864105 
0 
-0.007235223915707769 
0.003411626917251065 
-0.007376477288778726 
-0.004855749506637345 
-0.007752553777642733 
0.003196458285056545 
-0.008170135820331817 
-0.001386585733202151 
-0.008984050171363967 
0 
-0.008170135820331817 
0.001386585733202151 
-0.007752553777642733 
-0.003196458285056545 
-0.003490823176222642 
-0.003000630779554196 
-0.0009539218158868567 
-0.007848792183053663 
0.002466066460011976 
0 
-0.0009539218158868567 
0.007848792183053663 
-0.003490823176222642 
0.003000630779554196 
0.001079415432837377 
0.0008443354399177941 
-0.001902363801953369 
0.00747648409199371 
-0.01384758084674018 
0 
-0.001902363801953369 
-0.00747648409199371 
0.001079415432837377 
-0.0008443354399177941 
-0.0006963007636370767 
-0.005749541681837057 
0.003230567515703858 
-0.003577712284887362 
0.003699937915125094 
0 
0.003230567515703858 
0.003577712284887362 
-0.0006963007636370767 
0.005749541681837057 
-0.00768998556868488 
0.006082208793118093 
-0.0182310798623587 
-4.490190175618461e-05 
-0.01668278496013282 
0 
-0.0182310798623587 
4.490190175618461e-05 
-0.00768998556868488 
-0.006082208793118093 
-0.00375137824175954 
0.002271380750166097 
-0.005176707964377161 
0.001904769074834329 
-0.009124318527727592 
0 
-0.005176707964377161 
-0.001904769074834329 
-0.00375137824175954 
-0.002271380750166097 
-0.006117317096455104 
0.01162473602102947 
-0.01817643284909333 
0.009727469376201536 
-0.02308065006189931 
0 
-0.01817643284909333 
-0.009727469376201536 
-0.006117317096455104 
-0.01162473602102947 
0.002378974473625279 
-0.003067367901438977 
0.006474852460678679 
-0.004263766584618128 
0.01188666076072866 
0 
0.006474852460678679 
0.004263766584618128 
0.002378974473625279 
0.003067367901438977 
-0.009643915398341635 
-0.003112325093047759 
-0.01157658505914514 
-0.007180697223156771 
-0.009465440318252579 
0 
-0.01157658505914514 
0.007180697223156771 
-0.009643915398341635 
0.003112325093047759 
-0.005334280878947044 
-0.008361028947257569 
-0.0002145577462376235 
-0.01435096211774702 
0.01072905643481943 
0 
-0.0002145577462376235 
0.01435096211774702 
-0.005334280878947044 
0.008361028947257569 
-0.003966374442675249 
-0.005088490226863209 
-0.006580256321911637 
-0.000695721135340238 
-0.01646262803820604 
0 
-0.006580256321911637 
0.000695721135340238 
-0.003966374442675249 
0.005088490226863209 
-0.00141090508763222 
0.003873953885001045 
-0.008227774585292495 
0.004406106432240633 
-0.01279521674733671 
0 
-0.008227774585292495 
-0.004406106432240633 
-0.00141090508763222 
-0.003873953885001045 
-0.005902700173826175 
1.897927046940276e-05 
-0.009918111253602284 
-0.003051758281828363 
-0.008663851371078344 
0 
-0.009918111253602284 
0.003051758281828363 
-0.005902700173826175 
-1.897927046940276e-05 
-0.005782214043352165 
-0.01545496186273972 
0.002566322530976402 
-0.0119342468559814 
0.001706295484877439 
0 
0.002566322530976402 
0.0119342468559814 
-0.005782214043352165 
0.01545496186273972 
-0.01132671558531695 
-0.001759327543324724 
-0.01237256712972049 
-0.005747786261909324 
-0.01240880309210605 
0 
-0.01237256712972049 
0.005747786261909324 
-0.01132671558531695 
0.001759327543324724 
-0.003272076171283369 
0.002845434144519567 
-0.003788153660092059 
0.0006434851162855095 
-0.005600784083907075 
0 
-0.003788153660092059 
-0.0006434851162855095 
-0.003272076171283369 
-0.002845434144519567 
0.004094325382014287 
0.00204662562375441 
0.006334340024053444 
0.003502727344209 
0.005261216804066771 
0 
0.006334340024053444 
-0.003502727344209 
0.004094325382014287 
-0.00204662562375441 
-0.007929298168529608 
-0.006833417227745248 
-0.001413626898326649 
-0.01241583007338306 
0.003788518296199378 
0 
-0.001413626898326649 
0.01241583007338306 
-0.007929298168529608 
0.006833417227745248 
-0.001144046711769392 
0.008787878183306999 
-0.00732919506466884 
0.007146656970881446 
-0.01169145496929362 
0 
-0.00732919506466884 
-0.007146656970881446 
-0.001144046711769392 
-0.008787878183306999 
0.00196569432390099 
0.0007986560073505369 
-0.0008627067144263298 
0.0002051418653739301 
0.002135196142865244 
0 
-0.0008627067144263298 
-0.0002051418653739301 
0.00196569432390099 
-0.0007986560073505369 
-0.004629604317528835 
-0.008114738200170536 
0.001919432261098872 
-0.01003004405677097 
0.006010119386937247 
0 
0.001919432261098872 
0.01003004405677097 
-0.004629604317528835 
0.008114738200170536 
-0.001053976070359432 
0.001564560845924259 
0.003324984649916183 
-2.730311487942578e-05 
0.004392850964859503 
0 
0.003324984649916183 
2.730311487942578e-05 
-0.001053976070359432 
-0.001564560845924259 
-0.006847199582355273 
0.001067508303589651 
-0.0110596962168934 
-0.0001232223685400051 
-0.01478448870388911 
0 
-0.0110596962168934 
0.0001232223685400051 
-0.006847199582355273 
-0.001067508303589651 
-0.007505123051126978 
0.001840869036949637 
-0.003284886085361941 
-0.01051107613202683 
0.01476055655675073 
0 
-0.003284886085361941 
0.01051107613202683 
-0.007505123051126978 
-0.001840869036949637 
0.005171870690968119 
0.003480427731625538 
0.005231970707278257 
-0.001475169173502483 
0.01746181655188988 
0 
0.005231970707278257 
0.001475169173502483 
0.005171870690968119 
-0.003480427731625538 
0.001901804601700546 
0.0002350622349106987 
0.002406893023981518 
0.001426090996715037 
0.001106276365735316 
0 
0.002406893023981518 
-0.001426090996715037 
0.001901804601700546 
-0.0002350622349106987 
-0.009141997998083963 
-0.0005866604800280414 
-0.01629259057789989 
-0.0008224225341427669 
-0.02418714232550098 
0 
-0.01629259057789989 
0.0008224225341427669 
-0.009141997998083963 
0.0005866604800280414 
0.007267656963648397 
0.0002299165201702206 
0.008470314880378622 
0.003440176643912316 
0.009535492928971498 
0 
0.008470314880378622 
-0.003440176643912316 
0.007267656963648397 
-0.0002299165201702206 
0.01039944943909834 
-0.003886168897978502 
0.01935656579819926 
-0.001201211924812441 
0.02492325212947077 
0 
0.01935656579819926 
0.001201211924812441 
0.01039944943909834 
0.003886168897978502 
-0.003564545184697462 
-0.005513918471455744 
0.000555085686135023 
-0.006809337947731509 
0.005007450138181228 
0 
0.000555085686135023 
0.006809337947731509 
-0.003564545184697462 
0.005513918471455744 
-0.004533940127294048 
-0.001734300812137442 
-0.004545965281790847 
-0.006867696280755235 
0.002793275939734911 
0 
-0.004545965281790847 
0.006867696280755235 
-0.004533940127294048 
0.001734300812137442 
-0.005202263489284925 
-0.01412152843270196 
0.004455770475335342 
-0.01598302518358541 
0.01076927306096998 
0 
0.004455770475335342 
0.01598302518358541 
-0.005202263489284925 
0.01412152843270196 
0.002718830072884672 
-0.001580099563254266 
0.007231317597482905 
-0.002873735980751404 
0.01177496187025972 
0 
0.007231317597482905 
0.002873735980751404 
0.002718830072884672 
0.001580099563254266 
0.004256913185154009 
0.001456749046799322 
0.001745501755940201 
0.006243539961092334 
-0.003470015756475139 
0 
0.001745501755940201 
-0.006243539961092334 
0.004256913185154009 
-0.001456749046799322 
-0.003803793991627569 
0.008647834145002503 
-0.01303734968475342 
0.009034381629126322 
-0.02347806829425131 
0 
-0.01303734968475342 
-0.009034381629126322 
-0.003803793991627569 
-0.008647834145002503 
0.009218328365178229 
-0.01036023455703597 
0.02342612911088393 
-0.007383611735847756 
0.03242749439411396 
0 
0.02342612911088393 
0.007383611735847756 
0.009218328365178229 
0.01036023455703597 
0.0001410991107262138 
-0.01087384998309914 
0.006853386999581065 
-0.007322111421939629 
0.005857442050006515 
0 
0.006853386999581065 
0.007322111421939629 
0.0001410991107262138 
0.01087384998309914 
-0.005993795149997344 
0.0007804249764574892 
-0.005448876438693494 
-0.004585922828531698 
0.0007696186285153679 
0 
-0.005448876438693494 
0.004585922828531698 
-0.005993795149997344 
-0.0007804249764574892 
-0.005302418886551145 
-0.003438155881741621 
-0.0009889338797732822 
-0.0107984855921729 
0.007240746114574518 
0 
-0.0009889338797732822 
0.0107984855921729 
-0.005302418886551145 
0.003438155881741621 
-0.0008606856853550823 
0.001558731028904509 
0.001517830222700023 
-0.0005248403107494143 
0.003461337415731478 
0 
0.001517830222700023 
0.0005248403107494143 
-0.0008606856853550823 
-0.001558731028904509 
0.009984304761467904 
-0.001022394916206675 
0.01219052703221371 
0.006149378462320213 
0.004981384523013419 
0 
0.01219052703221371 
-0.006149378462320213 
0.009984304761467904 
0.001022394916206675 
0.003755266244682599 
0.003402614971226796 
0.005069238910673702 
0.004266647532901777 
0.005101876437977554 
0 
0.005069238910673702 
-0.004266647532901777 
0.003755266244682599 
-0.003402614971226796 
-0.001697754706423926 
-0.002022913738077494 
-0.002519465836298386 
0.001923628416421794 
-0.01336624800123572 
0 
-0.002519465836298386 
-0.001923628416421794 
-0.001697754706423926 
0.002022913738077494 
0.01006183643518316 
-0.004270078122534031 
0.01442302438126042 
0.006004772832384968 
0.005810484613220066 
0 
0.01442302438126042 
-0.006004772832384968 
0.01006183643518316 
0.004270078122534031 
0.0002976329575774431 
1.600469627661631e-06 
-0.0002428169528444208 
-0.0004140345515257391 
0.001429177085399034 
0 
-0.0002428169528444208 
0.0004140345515257391 
0.0002976329575774431 
-1.600469627661631e-06 
0.0007749933900401746 
-0.004845431538562713 
-0.0008704006378890652 
0.0003584301185519668 
-0.006121363115087521 
0 
-0.0008704006378890652 
-0.0003584301185519668 
0.0007749933900401746 
0.004845431538562713 
0.002503131637895497 
-0.002128493114895218 
0.00819201881156798 
-0.003292358352887005 
0.0160482396667076 
0 
0.00819201881156798 
0.003292358352887005 
0.002503131637895497 
0.002128493114895218 
0.003893230531471613 
0.005130077949782934 
-0.007147848237304404 
0.007286939949925056 
-0.01332187655600221 
0 
-0.007147848237304404 
-0.007286939949925056 
0.003893230531471613 
-0.005130077949782934 
0.004746754910680316 
-0.0002870144587282969 
0.0058240642901075 
0.003298926386700623 
0.001938004418466414 
0 
0.0058240642901075 
-0.003298926386700623 
0.004746754910680316 
0.0002870144587282969 
0.004053211483214526 
0.003772367637745369 
0.002598315746422645 
0.005390976163382146 
0.0006006980912310904 
0 
0.002598315746422645 
-0.005390976163382146 
0.004053211483214526 
-0.003772367637745369 
-0.0007138298343469481 
0.003656493725312812 
-0.008482535649217778 
0.008720799055992918 
-0.02299186754762806 
0 
-0.008482535649217778 
-0.008720799055992918 
-0.0007138298343469481 
-0.003656493725312812 
0.002250011599036938 
-0.005292069574830699 
0.01155248642433828 
-0.003747280135972836 
0.01616942881243466 
0 
0.01155248642433828 
0.003747280135972836 
0.002250011599036938 
0.005292069574830699 
0.01760109062267198 
-0.005911243350827439 
0.02412196634219894 
0.006856834314700547 
0.02020162545040684 
0 
0.02412196634219894 
-0.006856834314700547 
0.01760109062267198 
0.005911243350827439 
0.004115507019261899 
0.008473677174691675 
-0.008391315397258821 
0.01213541228573618 
-0.0183791813505958 
0 
-0.008391315397258821 
-0.01213541228573618 
0.004115507019261899 
-0.008473677174691675 
-0.001984764335796449 
-0.0026580077192797 
-0.005048908630567469 
0.003397552347612405 
-0.01609299627265008 
0 
-0.005048908630567469 
-0.003397552347612405 
-0.001984764335796449 
0.0026580077192797 
0.001173508328575961 
0.002697608147541844 
0.002492584961124238 
0.0008331350002742053 
0.005031040167497002 
0 
0.002492584961124238 
-0.0008331350002742053 
0.001173508328575961 
-0.002697608147541844 
-0.0004918332893272529 
0.00491942102123943 
-0.002129862700233669 
0.0009738327047231419 
0.0008083659289918714 
0 
-0.002129862700233669 
-0.0009738327047231419 
-0.0004918332893272529 
-0.00491942102123943 
-0.001318230772343502 
-0.006731068430641921 
0.007661996277815676 
-0.007214454422990742 
0.01178255382845089 
0 
0.007661996277815676 
0.007214454422990742 
-0.001318230772343502 
0.006731068430641921 
-0.01037212676522014 
-0.0009585327029973492 
-0.01364270370653671 
-0.00277862549421046 
-0.01815598077215009 
0 
-0.01364270370653671 
0.00277862549421046 
-0.01037212676522014 
0.0009585327029973492 
0.003194256995509787 
-0.00491411651099113 
0.0163120861701895 
-0.006898782454932932 
0.02508820271104244 
0 
0.0163120861701895 
0.006898782454932932 
0.003194256995509787 
0.00491411651099113 
-0.005258564372391225 
-0.00245547894176475 
0.002751026052274106 
-0.009754289414254028 
0.0153862893499751 
0 
0.002751026052274106 
0.009754289414254028 
-0.005258564372391225 
0.00245547894176475 
0.001908854891159246 
0.005589927583111435 
0.001367995244616707 
-0.00193974891243103 
0.01437142561580979 
0 
0.001367995244616707 
0.00193974891243103 
0.001908854891159246 
-0.005589927583111435 
-0.005641476730113026 
0.002161662534830451 
-0.005781810053520938 
7.520691736638975e-05 
-0.005117754371587964 
0 
-0.005781810053520938 
-7.520691736638975e-05 
-0.005641476730113026 
-0.002161662534830451 
0.00693340129022161 
0.002951802028060952 
0.004007142000464988 
0.003463173180764928 
0.007968493238075558 
0 
0.004007142000464988 
-0.003463173180764928 
0.00693340129022161 
-0.002951802028060952 
-4.318392474611695e-05 
0.003178933304953113 
-0.009160893340637617 
0.008568174736932959 
-0.0199633283239673 
0 
-0.009160893340637617 
-0.008568174736932959 
-4.318392474611695e-05 
-0.003178933304953113 
-0.0007039266305876756 
0.002348718168693807 
-0.003437114891078153 
0.004884424146030269 
-0.009440898696094808 
0 
-0.003437114891078153 
-0.004884424146030269 
-0.0007039266305876756 
-0.002348718168693807 
-0.01477091976013763 
0.002095958887841107 
-0.01945760677686318 
-0.00919745088643375 
-0.01702085051715267 
0 
-0.01945760677686318 
0.00919745088643375 
-0.01477091976013763 
-0.002095958887841107 
-0.003029462067469977 
-0.0038601978467712 
-0.000169597175312598 
-0.00843759170877569 
0.006406594017640056 
0 
-0.000169597175312598 
0.00843759170877569 
-0.003029462067469977 
0.0038601978467712 
-0.003201813935754886 
-0.009792060130461267 
0.00966338591475541 
-0.0120988448668001 
0.0188887599694226 
0 
0.00966338591475541 
0.0120988448668001 
-0.003201813935754886 
0.009792060130461267 
-0.004616907479040902 
-0.004168576892862951 
0.0003510934168142569 
-0.01232895390913035 
0.01423780172896937 
0 
0.0003510934168142569 
0.01232895390913035 
-0.004616907479040902 
0.004168576892862951 
0.001355292029641635 
0.004419412658181056 
0.0003929242453732615 
0.003695519849427143 
0.001701653820889199 
0 
0.0003929242453732615 
-0.003695519849427143 
0.001355292029641635 
-0.004419412658181056 
-0.005461749010547461 
-0.005775893473793242 
-0.01277403586538805 
-0.003824826956786839 
-0.01979618441285403 
0 
-0.01277403586538805 
0.003824826956786839 
-0.005461749010547461 
0.005775893473793242 
0.001519520784456105 
-0.00149043916537263 
0.005252078603337619 
-0.004881601618028465 
0.01330881983143461 
0 
0.005252078603337619 
0.004881601618028465 
0.001519520784456105 
0.00149043916537263 
0.001323131203713608 
-0.005056958932189514 
0.01342289799395874 
-0.005064052301041282 
0.01722074770246381 
0 
0.01342289799395874 
0.005064052301041282 
0.001323131203713608 
0.005056958932189514 
-0.004185550317211083 
0.002109783090909709 
-0.009775534199802255 
0.003952660122631639 
-0.01896779010174733 
0 
-0.009775534199802255 
-0.003952660122631639 
-0.004185550317211083 
-0.002109783090909709 
-0.003258928887909138 
0.002892151679163646 
-0.003432982317844898 
0.0008876635480323454 
-0.00390858436153897 
0 
-0.003432982317844898 
-0.0008876635480323454 
-0.003258928887909138 
-0.002892151679163646 
-0.00606445285147544 
-0.01013608449502181 
0.004719875585965332 
-0.01513061430382464 
0.01579256540306885 
0 
0.004719875585965332 
0.01513061430382464 
-0.00606445285147544 
0.01013608449502181 
-0.006097679812504124 
0.007961945168363663 
-0.008795746410246583 
0.003922902169753249 
-0.007804534427692037 
0 
-0.008795746410246583 
-0.003922902169753249 
-0.006097679812504124 
-0.007961945168363663 
-0.002295956290000815 
0.007353088794950512 
-0.01398901473007358 
0.005733959723583349 
-0.01615430800919145 
0 
-0.01398901473007358 
-0.005733959723583349 
-0.002295956290000815 
-0.007353088794950512 
0.00254898922577429 
-0.001240738807914696 
-0.002829255196324305 
0.008206744041058825 
-0.01841804567632064 
0 
-0.002829255196324305 
-0.008206744041058825 
0.00254898922577429 
0.001240738807914696 
0.002543344985031979 
-0.01304059942639602 
0.01388232293709412 
-0.005954750850127288 
0.010800058008961 
0 
0.01388232293709412 
0.005954750850127288 
0.002543344985031979 
0.01304059942639602 
0.007002416794583005 
-0.002363728505184504 
0.01810431856193726 
0.0009608084473132327 
0.02243994211097153 
0 
0.01810431856193726 
-0.0009608084473132327 
0.007002416794583005 
0.002363728505184504 
-0.005497775331528063 
0.003876039199348292 
-0.01976058095638886 
0.008684759459497073 
-0.0400817961147065 
0 
-0.01976058095638886 
-0.008684759459497073 
-0.005497775331528063 
-0.003876039199348292 
0.005792872233802412 
-0.004648598451531284 
0.01306634444619655 
0.001246084153293091 
0.008777490871884662 
0 
0.01306634444619655 
-0.001246084153293091 
0.005792872233802412 
0.004648598451531284 
0.01646002812923113 
0.001575638295957774 
0.03108466941826377 
0.005947157576652368 
0.03339748294668193 
0 
0.03108466941826377 
-0.005947157576652368 
0.01646002812923113 
-0.001575638295957774 
-0.001144880352709582 
-0.004662019585151129 
-0.006018695243139453 
0.005851457183348541 
-0.02738526424618206 
0 
-0.006018695243139453 
-0.005851457183348541 
-0.001144880352709582 
0.004662019585151129 
0.008465290286373257 
0.008552024494576971 
0.003037528610107737 
0.01472436399596601 
-0.008367355027719906 
0 
0.003037528610107737 
-0.01472436399596601 
0.008465290286373257 
-0.008552024494576971 
-0.003532423796278437 
-0.001066337158819758 
-0.005106303654631754 
-0.007697517003703681 
0.002096032773666175 
0 
-0.005106303654631754 
0.007697517003703681 
-0.003532423796278437 
0.001066337158819758 
-0.005125019214752419 
0.0009377641619239986 
-0.003555825233838827 
-0.009045079924480708 
0.01048016178665906 
0 
-0.003555825233838827 
0.009045079924480708 
-0.005125019214752419 
-0.0009377641619239986 
-0.004622802458635339 
0.001059284156698828 
-0.01058815097159893 
0.003187999199843028 
-0.02139727692267148 
0 
-0.01058815097159893 
-0.003187999199843028 
-0.004622802458635339 
-0.001059284156698828 
-0.001914122916798244 
0.005815346456658125 
-0.01190347569894516 
0.009862346649805996 
-0.02595704362959203 
0 
-0.01190347569894516 
-0.009862346649805996 
-0.001914122916798244 
-0.005815346456658125 
-0.008956554655433336 
-0.007024987680087941 
-0.003200712795330493 
-0.01095883283847852 
-0.00042586527108775 
0 
-0.003200712795330493 
0.01095883283847852 
-0.008956554655433336 
0.007024987680087941 
0.01513922279419025 
-0.003984949744898472 
0.02435793442105268 
0.0005623407867040937 
0.02937846365006217 
0 
0.02435793442105268 
-0.0005623407867040937 
0.01513922279419025 
0.003984949744898472 
0.003786296844195061 
0.007267262772957602 
-0.002250899073085144 
0.00699732642579423 
-0.003373217001701459 
0 
-0.002250899073085144 
-0.00699732642579423 
0.003786296844195061 
-0.007267262772957602 
-0.005384612190582807 
-0.004221644197345559 
0.005408192598786611 
-0.01294283674079954 
0.02124012393164165 
0 
0.005408192598786611 
0.01294283674079954 
-0.005384612190582807 
0.004221644197345559 
-0.003562682463439636 
-0.00430306357871822 
-0.004832989792429509 
-0.0015690844034112 
-0.0100780614679442 
0 
-0.004832989792429509 
0.0015690844034112 
-0.003562682463439636 
0.00430306357871822 
-0.01217375356429838 
0.0004888766727203624 
-0.01988400918318082 
-0.005372216766865629 
-0.02022100821445135 
0 
-0.01988400918318082 
0.005372216766865629 
-0.01217375356429838 
-0.0004888766727203624 
0.001145426575162622 
0.001691667604567443 
0.003353451875010393 
0.0006716335686029746 
0.003829619798789108 
0 
0.003353451875010393 
-0.0006716335686029746 
0.001145426575162622 
-0.001691667604567443 
-1.625880488151189e-06 
0.004469621973673957 
-0.008059081685184304 
0.01122145400108844 
-0.02504624813646636 
0 
-0.008059081685184304 
-0.01122145400108844 
-1.625880488151189e-06 
-0.004469621973673957 
0.006398989413856844 
0.003123351597924943 
0.001935319499576763 
0.009953221889268189 
-0.007890969555451013 
0 
0.001935319499576763 
-0.009953221889268189 
0.006398989413856844 
-0.003123351597924943 
0.02154103627209326 
-0.001814581026966694 
0.03092222830738067 
0.01136270813302364 
0.02550197746742858 
0 
0.03092222830738067 
-0.01136270813302364 
0.02154103627209326 
0.001814581026966694 
0.01041926751506944 
0.003146845791241809 
0.02041737909252066 
0.002464634583392741 
0.02883173063827275 
0 
0.02041737909252066 
-0.002464634583392741 
0.01041926751506944 
-0.003146845791241809 
0.006328855003937146 
0.008518315815053067 
0.003946603886240067 
0.009972460283510414 
0.00128793645326617 
0 
0.003946603886240067 
-0.009972460283510414 
0.006328855003937146 
-0.008518315815053067 
0.004412614723000047 
0.003512676071892894 
-0.001802425074208756 
0.009276527526875397 
-0.01021630513655013 
0 
-0.001802425074208756 
-0.009276527526875397 
0.004412614723000047 
-0.003512676071892894 
-0.008604408351496272 
-0.002019181934455279 
-0.0108046548549411 
-0.001199202757103111 
-0.0172662205319769 
0 
-0.0108046548549411 
0.001199202757103111 
-0.008604408351496272 
0.002019181934455279 
0.008801213260993519 
0.008613822083934585 
0.01130328837733107 
0.00978578246420345 
0.01316051066991685 
0 
0.01130328837733107 
-0.00978578246420345 
0.008801213260993519 
-0.008613822083934585 
-0.00130281937815195 
0.001011913494456915 
-0.0190045533248452 
0.009722577498958893 
-0.03977807421453438 
0 
-0.0190045533248452 
-0.009722577498958893 
-0.00130281937815195 
-0.001011913494456915 
-0.0009869494730172033 
0.001006664659628567 
0.002238529058419822 
0.001062615293431831 
-1.488257909044283e-05 
0 
0.002238529058419822 
-0.001062615293431831 
-0.0009869494730172033 
-0.001006664659628567 
0.006888510080572586 
0.001569473074869197 
0.01283246112885575 
0.001982731444119837 
0.01583220372439361 
0 
0.01283246112885575 
-0.001982731444119837 
0.006888510080572586 
-0.001569473074869197 
0.004810725684065978 
0.008973531315849881 
0.0005634126066590741 
0.008817396682945738 
-0.002705410275849386 
0 
0.0005634126066590741 
-0.008817396682945738 
0.004810725684065978 
-0.008973531315849881 
0.008891895728558719 
-0.002506119207938441 
0.01655226354582143 
-0.001917686077427356 
0.02278284686396329 
0 
0.01655226354582143 
0.001917686077427356 
0.008891895728558719 
0.002506119207938441 
-0.009394745429375052 
-0.006461690496789644 
-0.01099123083922241 
-0.007076353709580383 
-0.01451414728460478 
0 
-0.01099123083922241 
0.007076353709580383 
-0.009394745429375052 
0.006461690496789644 
0.01271606729152114 
-0.002714018821865369 
0.02277594284717064 
0.0007825492839882695 
0.02761367602055935 
0 
0.02277594284717064 
-0.0007825492839882695 
0.01271606729152114 
0.002714018821865369 
-0.003521694399989895 
0.00521231563499891 
-0.004334879301444559 
0.0003496594445544877 
-0.001833587352696543 
0 
-0.004334879301444559 
-0.0003496594445544877 
-0.003521694399989895 
-0.00521231563499891 
-0.006643738917808671 
0.004597436622752946 
-0.01587333718663445 
0.008120560873680628 
-0.034924865770735 
0 
-0.01587333718663445 
-0.008120560873680628 
-0.006643738917808671 
-0.004597436622752946 
0.007409714725679764 
-0.002872128571948237 
0.01190998129801386 
0.002260057094729445 
0.008252079820374847 
0 
0.01190998129801386 
-0.002260057094729445 
0.007409714725679764 
0.002872128571948237 
0.004728112078071948 
-0.0009871646170796615 
0.006604105724121775 
0.001301372584133014 
0.006191301695528141 
0 
0.006604105724121775 
-0.001301372584133014 
0.004728112078071948 
0.0009871646170796615 
-0.00904558854363924 
-0.0006768457109520578 
-0.006469215381637436 
-0.01001759498466068 
0.006578856077958391 
0 
-0.006469215381637436 
0.01001759498466068 
-0.00904558854363924 
0.0006768457109520578 
0.005784434240467304 
3.948239152773943e-05 
0.01368870553668956 
-0.002480042893030817 
0.02111025382962478 
0 
0.01368870553668956 
0.002480042893030817 
0.005784434240467304 
-3.948239152773943e-05 
-0.008585501712653381 
0.007078040309254003 
-0.02092831519698651 
0.002268085332199203 
-0.02298261880669769 
0 
-0.02092831519698651 
-0.002268085332199203 
-0.008585501712653381 
-0.007078040309254003 
0.01613087281298308 
-0.004019603649667024 
0.02361295412826247 
0.005837843834084134 
0.02351738858440058 
0 
0.02361295412826247 
-0.005837843834084134 
0.01613087281298308 
0.004019603649667024 
0.01303624316939569 
-0.004771646280330716 
0.01772254843406421 
0.00462398404785869 
0.01197498944869008 
0 
0.01772254843406421 
-0.00462398404785869 
0.01303624316939569 
0.004771646280330716 
-0.005536616340871965 
-0.004606867719740392 
-0.006511490517777109 
-0.001938005800624185 
-0.01665244769868056 
0 
-0.006511490517777109 
0.001938005800624185 
-0.005536616340871965 
0.004606867719740392 
0.002593709171629663 
-0.008522928683078612 
0.02396701035570669 
-0.0157453460411079 
0.04330811327595847 
0 
0.02396701035570669 
0.0157453460411079 
0.002593709171629663 
0.008522928683078612 
0.00254561738193667 
0.001293106195679381 
0.01317183374179878 
-0.003868914541714488 
0.02414918563818564 
0 
0.01317183374179878 
0.003868914541714488 
0.00254561738193667 
-0.001293106195679381 
-0.006515340789921626 
-0.0001595355248464692 
-0.003676872025802263 
-0.008622810630212772 
0.007125291132981914 
0 
-0.003676872025802263 
0.008622810630212772 
-0.006515340789921626 
0.0001595355248464692 
-0.001193564797662038 
0.001062681066246991 
0.0001838689814755684 
-0.0002236404709821371 
0.001089153732113958 
0 
0.0001838689814755684 
0.0002236404709821371 
-0.001193564797662038 
-0.001062681066246991 
-0.002034605160238053 
0.00271768338653108 
-0.003245244490161276 
0.0005645748542768247 
-0.001045306574144312 
0 
-0.003245244490161276 
-0.0005645748542768247 
-0.002034605160238053 
-0.00271768338653108 
-0.004583862983456037 
0.006276998009524117 
-0.01000406506282142 
-0.000224613145040475 
-0.004042120393482576 
0 
-0.01000406506282142 
0.000224613145040475 
-0.004583862983456037 
-0.006276998009524117 
-0.000605446856406762 
-0.004815814985493345 
0.0109209572968028 
-0.006919299253390545 
0.02115170255443482 
0 
0.0109209572968028 
0.006919299253390545 
-0.000605446856406762 
0.004815814985493345 
-0.0116982061373947 
0.001574569970624901 
-0.01430074787622705 
-0.001536208390090884 
-0.0177256281335919 
0 
-0.01430074787622705 
0.001536208390090884 
-0.0116982061373947 
-0.001574569970624901 
-0.01510755242921674 
-0.007595596907101412 
-0.01761683393649207 
-0.01149023812562316 
-0.01872118283162868 
0 
-0.01761683393649207 
0.01149023812562316 
-0.01510755242921674 
0.007595596907101412 
-0.008153886458806532 
0.004140987235830194 
-0.01450232301918872 
0.001749153667235057 
-0.01981817755550361 
0 
-0.01450232301918872 
-0.001749153667235057 
-0.008153886458806532 
-0.004140987235830194 
0.004472081820460253 
0.002227774529233352 
-0.006729983122062757 
0.01021856734544439 
-0.01920149590986334 
0 
-0.006729983122062757 
-0.01021856734544439 
0.004472081820460253 
-0.002227774529233352 
0.0001880247547203727 
-0.004417682784765589 
0.00804888960321285 
-0.006492168030070965 
0.01644804795187005 
0 
0.00804888960321285 
0.006492168030070965 
0.0001880247547203727 
0.004417682784765589 
-0.01125545366305515 
0.007244959844828239 
-0.02522110643932715 
0.00713764256194918 
-0.03833136848950488 
0 
-0.02522110643932715 
-0.00713764256194918 
-0.01125545366305515 
-0.007244959844828239 
-0.008841349089594891 
0.003276776806670186 
-0.01465291723875645 
0.002724392966170067 
-0.02024044255511011 
0 
-0.01465291723875645 
-0.002724392966170067 
-0.008841349089594891 
-0.003276776806670186 
0.006061402343905576 
0.0009742000843733067 
0.01259198747890074 
0.0006852987960854866 
0.01934304449044975 
0 
0.01259198747890074 
-0.0006852987960854866 
0.006061402343905576 
-0.0009742000843733067 
-0.01356059943670345 
0.006853099192270852 
-0.02289534320174984 
-0.002373035864381538 
-0.02460667587300237 
0 
-0.02289534320174984 
0.002373035864381538 
-0.01356059943670345 
-0.006853099192270852 
0.001405217700117798 
0.005308523827690327 
0.00115622249874838 
0.002371484960662958 
0.004809549827846376 
0 
0.00115622249874838 
-0.002371484960662958 
0.001405217700117798 
-0.005308523827690327 
0.006713763898178264 
0.003235411676268125 
0.006954307284456561 
0.005836823984265384 
0.004954269355397774 
0 
0.006954307284456561 
-0.005836823984265384 
0.006713763898178264 
-0.003235411676268125 
-0.003296481356975122 
-0.005624177875638083 
-0.0004190931143237035 
-0.006256448939970273 
-0.0005750125049866951 
0 
-0.0004190931143237035 
0.006256448939970273 
-0.003296481356975122 
0.005624177875638083 
-0.0003735771445987177 
-0.002356889232688741 
0.0002569867737988752 
0.0005524823539299457 
-0.003138004102359944 
0 
0.0002569867737988752 
-0.0005524823539299457 
-0.0003735771445987177 
0.002356889232688741 
-0.003378131821935315 
0.0008878888871419124 
-0.009614993041188923 
0.005247122819866608 
-0.01884334468462918 
0 
-0.009614993041188923 
-0.005247122819866608 
-0.003378131821935315 
-0.0008878888871419124 
-0.00069819010526699 
0.00338427650871519 
-0.007175586412350788 
0.002058846725540872 
-0.008911685875375877 
0 
-0.007175586412350788 
-0.002058846725540872 
-0.00069819010526699 
-0.00338427650871519 
-0.0002196413385746566 
-0.005765020794754066 
0.007090725540805993 
-0.006103721178687971 
0.01300631496438242 
0 
0.007090725540805993 
0.006103721178687971 
-0.0002196413385746566 
0.005765020794754066 
-0.01456022197106078 
0.006310851538196056 
-0.02700587359148398 
0.002442475164912891 
-0.03646307906014253 
0 
-0.02700587359148398 
-0.002442475164912891 
-0.01456022197106078 
-0.006310851538196056 
-0.0002893608299370912 
-0.005757032696202662 
0.00727120369652336 
-0.002672444320814888 
0.005895292533737789 
0 
0.00727120369652336 
0.002672444320814888 
-0.0002893608299370912 
0.005757032696202662 
-0.00075105915898996 
0.0006981697867639589 
-0.002245954300943104 
-3.766319125267348e-05 
-0.003207993003997947 
0 
-0.002245954300943104 
3.766319125267348e-05 
-0.00075105915898996 
-0.0006981697867639589 
0.006445106708372484 
-0.000445451208349641 
0.006340648257529458 
0.008663265486660226 
-0.004001835371562177 
0 
0.006340648257529458 
-0.008663265486660226 
0.006445106708372484 
0.000445451208349641 
0.009796668053937797 
-0.002162885554064942 
0.01702229421075358 
0.002907355611363583 
0.01713158060113151 
0 
0.01702229421075358 
-0.002907355611363583 
0.009796668053937797 
0.002162885554064942 
-0.004524225637051838 
0.003844739095877319 
-0.01462829428514231 
0.007880617793851491 
-0.02972911577122914 
0 
-0.01462829428514231 
-0.007880617793851491 
-0.004524225637051838 
-0.003844739095877319 
-0.004945279504822962 
0.003681779418622347 
-0.01644093782044574 
0.0001608049887106323 
-0.01914020721347664 
0 
-0.01644093782044574 
-0.0001608049887106323 
-0.004945279504822962 
-0.003681779418622347 
0.0131747369582312 
-0.0003048977555798448 
0.01733839924500825 
0.0032675910039103 
0.01878429070697604 
0 
0.01733839924500825 
-0.0032675910039103 
0.0131747369582312 
0.0003048977555798448 
-0.01000828820354446 
0.00566667881866657 
-0.01809767102338585 
0.002349807058967547 
-0.02430959499922971 
0 
-0.01809767102338585 
-0.002349807058967547 
-0.01000828820354446 
-0.00566667881866657 
0.0008225632472271222 
-0.002414760751028101 
0.007099446134064817 
-0.00143834559613164 
0.01369157623778706 
0 
0.007099446134064817 
0.00143834559613164 
0.0008225632472271222 
0.002414760751028101 
0.0007865257473079092 
0.0006678064022564742 
0.007849382825698152 
-0.001413774769180437 
0.008961920217690759 
0 
0.007849382825698152 
0.001413774769180437 
0.0007865257473079092 
-0.0006678064022564742 
-0.002671018356739828 
0.001152055501792273 
-3.735397920407192e-05 
0.003354607565319502 
-0.004327282408923824 
0 
-3.735397920407192e-05 
-0.003354607565319502 
-0.002671018356739828 
-0.001152055501792273 
0.01170665871352706 
-0.002411620471622113 
0.01925223772125555 
0.002551150054335635 
0.0211328382448038 
0 
0.01925223772125555 
-0.002551150054335635 
0.01170665871352706 
0.002411620471622113 
-0.001889912305447471 
-0.00098749999683719 
-0.003130598975324687 
-0.000562909854028854 
-0.006969969190607822 
0 
-0.003130598975324687 
0.000562909854028854 
-0.001889912305447471 
0.00098749999683719 
-0.0002929914817846257 
0.01040963287900588 
-0.01032972532499632 
0.006527725446524568 
-0.01106179648795041 
0 
-0.01032972532499632 
-0.006527725446524568 
-0.0002929914817846257 
-0.01040963287900588 
0.008790736559963375 
0.0071785260801933 
0.01043540405322912 
0.005685468703808901 
0.01571648435125052 
0 
0.01043540405322912 
-0.005685468703808901 
0.008790736559963375 
-0.0071785260801933 
-0.007717824882434852 
0.007309438134254374 
-0.01985860291111154 
0.003429059373016344 
-0.02297275079351302 
0 
-0.01985860291111154 
-0.003429059373016344 
-0.007717824882434852 
-0.007309438134254374 
0.01337497531442198 
-0.003313329718908977 
0.02042032820229036 
0.005770207804492358 
0.01789678133247803 
0 
0.02042032820229036 
-0.005770207804492358 
0.01337497531442198 
0.003313329718908977 
-0.001467100688767436 
-0.007112840167261628 
-0.001026413057569713 
-0.005056108090854061 
-0.004679889048350705 
0 
-0.001026413057569713 
0.005056108090854061 
-0.001467100688767436 
0.007112840167261628 
0.01281104171411903 
-0.009823530620278116 
0.02774572884008472 
-0.004491003572643355 
0.03434262624028133 
0 
0.02774572884008472 
0.004491003572643355 
0.01281104171411903 
0.009823530620278116 
0.01054382752006407 
-0.004868834274544018 
0.02527184509200565 
-0.003671365687730822 
0.03451084716479259 
0 
0.02527184509200565 
0.003671365687730822 
0.01054382752006407 
0.004868834274544018 
-0.006447080392912565 
0.003258195020097083 
-0.01194768034639709 
0.002104090716650034 
-0.01612150986186969 
0 
-0.01194768034639709 
-0.002104090716650034 
-0.006447080392912565 
-0.003258195020097083 
-0.001307928332913118 
0.008932226456868414 
-0.003789024141079468 
0.003065492949666888 
0.002370329412059079 
0 
-0.003789024141079468 
-0.003065492949666888 
-0.001307928332913118 
-0.008932226456868414 
0.01253536207468992 
-0.003055088668119228 
0.02024926772354937 
0.003115760445321161 
0.02233453791612825 
0 
0.02024926772354937 
-0.003115760445321161 
0.01253536207468992 
0.003055088668119228 
-0.01302484068503646 
0.005281617875516384 
-0.03311138619169626 
0.004726848468424425 
-0.04980940498341731 
0 
-0.03311138619169626 
-0.004726848468424425 
-0.01302484068503646 
-0.005281617875516384 
0.004245946166764384 
-0.001513071976203509 
0.009101104031828075 
-0.0002751223283166275 
0.01181493320888197 
0 
0.009101104031828075 
0.0002751223283166275 
0.004245946166764384 
0.001513071976203509 
-0.00203591934318161 
-0.004405786864776921 
0.004461764501242741 
-0.006610500074685948 
0.008187974039362961 
0 
0.004461764501242741 
0.006610500074685948 
-0.00203591934318161 
0.004405786864776921 
0.001382491819444877 
0.0004817389672816129 
0.002146348082567283 
0.0006518870592292863 
0.005024766310479103 
0 
0.002146348082567283 
-0.0006518870592292863 
0.001382491819444877 
-0.0004817389672816129 
0.007392055079011052 
-0.003448310848275166 
0.01786479641777186 
-0.002271563025925749 
0.02678106245539164 
0 
0.01786479641777186 
0.002271563025925749 
0.007392055079011052 
0.003448310848275166 
-0.0004524436537015904 
0.00383030937097817 
-0.002009768002683922 
0.001954639659426153 
-0.00107740334543885 
0 
-0.002009768002683922 
-0.001954639659426153 
-0.0004524436537015904 
-0.00383030937097817 
-0.01774897174604597 
-0.001124713493701999 
-0.02096528389772668 
-0.01115010022164515 
-0.01551132601063305 
0 
-0.02096528389772668 
0.01115010022164515 
-0.01774897174604597 
0.001124713493701999 
0.008480245054008986 
0.002004748040161628 
0.01418205323147117 
0.007419565873379187 
0.0119637293621661 
0 
0.01418205323147117 
-0.007419565873379187 
0.008480245054008986 
-0.002004748040161628 
-0.008249020321399446 
0.007606503116553688 
-0.02932874217703407 
0.009095015361103593 
-0.04451649762856719 
0 
-0.02932874217703407 
-0.009095015361103593 
-0.008249020321399446 
-0.007606503116553688 
0.01363409149284016 
-0.005229857892261122 
0.02285991945278196 
0.00257211679922633 
0.02333233155195008 
0 
0.02285991945278196 
-0.00257211679922633 
0.01363409149284016 
0.005229857892261122 
0.0009199438690212882 
0.001720892205682796 
0.001401672012618284 
-0.0004239029036607722 
0.003354735981018538 
0 
0.001401672012618284 
0.0004239029036607722 
0.0009199438690212882 
-0.001720892205682796 
-0.003339814643774533 
-0.003029326624409617 
0.004433841132000185 
-0.007555236254038433 
0.01288043108376789 
0 
0.004433841132000185 
0.007555236254038433 
-0.003339814643774533 
0.003029326624409617 
0.009451776643797975 
-0.004897693377459462 
0.01853259427827316 
-0.002430797509342668 
0.02799982879451409 
0 
0.01853259427827316 
0.002430797509342668 
0.009451776643797975 
0.004897693377459462 
-0.004499204741505078 
0.008965812825644556 
-0.01119431675984453 
0.002013455015623189 
-0.005924743829963746 
0 
-0.01119431675984453 
-0.002013455015623189 
-0.004499204741505078 
-0.008965812825644556 
0.000888167982659082 
-0.003405419854729631 
0.0009532485571881049 
-0.003560446854147453 
0.006387381939543425 
0 
0.0009532485571881049 
0.003560446854147453 
0.000888167982659082 
0.003405419854729631 
0.01022928173566512 
0.0007470555014153005 
0.008382208685105369 
0.003001097353462827 
0.01061467039190466 
0 
0.008382208685105369 
-0.003001097353462827 
0.01022928173566512 
-0.0007470555014153005 
-0.01123335822823386 
0.005181201950475402 
-0.020720478747566 
-0.001746037444480359 
-0.01979009490115073 
0 
-0.020720478747566 
0.001746037444480359 
-0.01123335822823386 
-0.005181201950475402 
-0.003786168319368404 
-0.00433709438035951 
0.001500601936600663 
-0.004023021906713707 
0.000393769294017128 
0 
0.001500601936600663 
0.004023021906713707 
-0.003786168319368404 
0.00433709438035951 
-0.0105271627611315 
0.002761027003928023 
-0.01691055166979183 
-0.001605465359777196 
-0.01722688576677638 
0 
-0.01691055166979183 
0.001605465359777196 
-0.0105271627611315 
-0.002761027003928023 
0.003967784796194897 
0.002760522802790314 
0.005930113323081682 
0.00374907316407194 
0.00771479836483903 
0 
0.005930113323081682 
-0.00374907316407194 
0.003967784796194897 
-0.002760522802790314 
0.006477729541370606 
0.0008119970264534394 
0.004410382522061487 
0.004330610505408782 
0.00260142616253984 
0 
0.004410382522061487 
-0.004330610505408782 
0.006477729541370606 
-0.0008119970264534394 
-0.01099125401726312 
-0.004143953586628012 
-0.005952809362332608 
-0.01340472829457215 
0.005347966103617969 
0 
-0.005952809362332608 
0.01340472829457215 
-0.01099125401726312 
0.004143953586628012 
-0.007576665357749761 
-0.007514663269500332 
-0.005476292264984656 
-0.01515659083915612 
0.004391590649353134 
0 
-0.005476292264984656 
0.01515659083915612 
-0.007576665357749761 
0.007514663269500332 
-0.01659185360930537 
-0.01162718575106027 
-0.01338411629760193 
-0.02005979875706048 
-0.001358854258309685 
0 
-0.01338411629760193 
0.02005979875706048 
-0.01659185360930537 
0.01162718575106027 
-0.001955909372975673 
0.001606549356861732 
-0.008324247050738403 
0.001446248439671511 
-0.008329781006100248 
0 
-0.008324247050738403 
-0.001446248439671511 
-0.001955909372975673 
-0.001606549356861732 
0.00332949417079816 
-0.001491630537200645 
0.004485424070179923 
-0.0007098016825733888 
0.006920255794743022 
0 
0.004485424070179923 
0.0007098016825733888 
0.00332949417079816 
0.001491630537200645 
-0.01885419543933247 
0.004938678928858769 
-0.0343704508521315 
0.000742542209690393 
-0.04484229454890239 
0 
-0.0343704508521315 
-0.000742542209690393 
-0.01885419543933247 
-0.004938678928858769 
-0.01243254115822665 
0.007604056881241058 
-0.03374664391733459 
0.005085287991564364 
-0.04687920327517593 
0 
-0.03374664391733459 
-0.005085287991564364 
-0.01243254115822665 
-0.007604056881241058 
0.002622484155186563 
0.006056345844172685 
-0.004894281851449555 
0.008036507483502863 
-0.009288662483424207 
0 
-0.004894281851449555 
-0.008036507483502863 
0.002622484155186563 
-0.006056345844172685 
0.001528762191782895 
0.00245587778724315 
0.004616067961905603 
0.0007065896328918714 
0.009238732999375351 
0 
0.004616067961905603 
-0.0007065896328918714 
0.001528762191782895 
-0.00245587778724315 
0.003593691257811327 
-0.00658296396420531 
0.007296534573955643 
-0.004840881136413387 
0.008614504765066512 
0 
0.007296534573955643 
0.004840881136413387 
0.003593691257811327 
0.00658296396420531 
-0.017216360834535 
-0.008338038933582089 
-0.02317332359578449 
-0.01359695673303081 
-0.02172153597832421 
0 
-0.02317332359578449 
0.01359695673303081 
-0.017216360834535 
0.008338038933582089 
-0.006758458678758701 
0.01006620771029112 
-0.01384866943605366 
0.002114221636879565 
-0.01138097780520356 
0 
-0.01384866943605366 
-0.002114221636879565 
-0.006758458678758701 
-0.01006620771029112 
0.003928254911171455 
0.007227693308634131 
-0.001382734066424409 
0.008269164602250191 
-0.006273550713365945 
0 
-0.001382734066424409 
-0.008269164602250191 
0.003928254911171455 
-0.007227693308634131 
-0.009348126303683266 
0.009210669356660499 
-0.02900262526487855 
0.01293941654380738 
-0.05186628894434238 
0 
-0.02900262526487855 
-0.01293941654380738 
-0.009348126303683266 
-0.009210669356660499 
0.007998079831963345 
0.01128281167991864 
0.001881329402827482 
0.02026763749515859 
-0.01326128849582246 
0 
0.001881329402827482 
-0.02026763749515859 
0.007998079831963345 
-0.01128281167991864 
0.004801238936866172 
0.004935785287666402 
0.00280046799904122 
0.01116109124058065 
-0.006797989134073377 
0 
0.00280046799904122 
-0.01116109124058065 
0.004801238936866172 
-0.004935785287666402 
-0.01360781514716745 
0.004248392393310874 
-0.01602430128507336 
-0.00892944476427634 
-0.005351737879976587 
0 
-0.01602430128507336 
0.00892944476427634 
-0.01360781514716745 
-0.004248392393310874 
-0.01407430105685686 
0.001923081782650066 
-0.01836001600809695 
-0.006923734563489728 
-0.01480623187443621 
0 
-0.01836001600809695 
0.006923734563489728 
-0.01407430105685686 
-0.001923081782650066 
-0.009497835696895079 
-0.004621296910211078 
-0.01037044291397315 
-0.01156175855436515 
-0.004568530001130789 
0 
-0.01037044291397315 
0.01156175855436515 
-0.009497835696895079 
0.004621296910211078 
-0.0006595927628711884 
0.0003198198969195925 
0.000648260120985224 
0.0009467399067069881 
-0.002451119533390051 
0 
0.000648260120985224 
-0.0009467399067069881 
-0.0006595927628711884 
-0.0003198198969195925 
0.0003279783964725154 
-0.002551644545171659 
0.001018241527492585 
0.003182492293145373 
-0.006039833207960832 
0 
0.001018241527492585 
-0.003182492293145373 
0.0003279783964725154 
0.002551644545171659 
-0.009790757732995243 
0.009734819607904854 
-0.02405883635588612 
0.01180146372467678 
-0.04144379264624359 
0 
-0.02405883635588612 
-0.01180146372467678 
-0.009790757732995243 
-0.009734819607904854 
-0.01185753126128919 
-0.003890982198624579 
-0.01545991414194515 
-0.006085053740040292 
-0.01895615509343773 
0 
-0.01545991414194515 
0.006085053740040292 
-0.01185753126128919 
0.003890982198624579 
-0.001636343686679668 
-0.003579806994552119 
0.007493204493635986 
-0.007440557949292655 
0.01846306494910292 
0 
0.007493204493635986 
0.007440557949292655 
-0.001636343686679668 
0.003579806994552119 
-0.001968756434907388 
0.0003621279782948094 
0.003706522846296159 
-0.002465418054469772 
0.009198186954744701 
0 
0.003706522846296159 
0.002465418054469772 
-0.001968756434907388 
-0.0003621279782948094 
-0.0009721252187747191 
-0.0003608274018948787 
-0.009526936013326619 
0.0005188555910369683 
-0.01397959052612009 
0 
-0.009526936013326619 
-0.0005188555910369683 
-0.0009721252187747191 
0.0003608274018948787 
-0.004924625273589353 
-0.004027560579852308 
-0.008855948679105352 
-0.002176003279174909 
-0.01460217524959911 
0 
-0.008855948679105352 
0.002176003279174909 
-0.004924625273589353 
0.004027560579852308 
0.003478864897587464 
0.004673501152727914 
0.0003831990814191478 
0.009359975074937167 
-0.007050681893572906 
0 
0.0003831990814191478 
-0.009359975074937167 
0.003478864897587464 
-0.004673501152727914 
0.005396710757421892 
0.003522346992771186 
0.008809768040933847 
0.002579724050677102 
0.01491507824791335 
0 
0.008809768040933847 
-0.002579724050677102 
0.005396710757421892 
-0.003522346992771186 
-0.01171440509453328 
-0.002532357953457801 
-0.02371906237305675 
-0.001189220994893214 
-0.034756883027527 
0 
-0.02371906237305675 
0.001189220994893214 
-0.01171440509453328 
0.002532357953457801 
0.00158784958984034 
0.003567199353127463 
-0.007531395485009889 
0.01109720267445693 
-0.02323459373355553 
0 
-0.007531395485009889 
-0.01109720267445693 
0.00158784958984034 
-0.003567199353127463 
0.00350295075096313 
0.009382130947554858 
0.001868789339801973 
0.006248861117186939 
0.003279571358466164 
0 
0.001868789339801973 
-0.006248861117186939 
0.00350295075096313 
-0.009382130947554858 
-0.005103727769213896 
-0.0008966775442700914 
-0.007371375072527241 
-0.001889552838117798 
-0.008340870195448003 
0 
-0.007371375072527241 
0.001889552838117798 
-0.005103727769213896 
0.0008966775442700914 
-0.01184865529437287 
-0.002868321512652993 
-0.01839587109533606 
-0.00482836587514777 
-0.02183865131972139 
0 
-0.01839587109533606 
0.00482836587514777 
-0.01184865529437287 
0.002868321512652993 
-0.007573771433543161 
-0.003054890602248555 
-0.009319942191725567 
-0.005604519435546833 
-0.008477510276803654 
0 
-0.009319942191725567 
0.005604519435546833 
-0.007573771433543161 
0.003054890602248555 
0.00816741776767994 
0.01117772155592973 
0.001910988936796485 
0.01162761989665079 
-0.001077707909245623 
0 
0.001910988936796485 
-0.01162761989665079 
0.00816741776767994 
-0.01117772155592973 
0.006853607058114902 
0.004323916652696578 
0.006863117820991713 
0.00527946859851942 
0.007498986628594535 
0 
0.006863117820991713 
-0.00527946859851942 
0.006853607058114902 
-0.004323916652696578 
0.00279518720933102 
-0.002515103996598604 
0.002687749881173833 
0.002099339151656123 
-0.001461037678114159 
0 
0.002687749881173833 
-0.002099339151656123 
0.00279518720933102 
0.002515103996598604 
-0.000767861169387923 
-0.001007810124032657 
-0.005069803501733716 
0.003657483892577249 
-0.01600041924979695 
0 
-0.005069803501733716 
-0.003657483892577249 
-0.000767861169387923 
0.001007810124032657 
-0.003658453428834369 
0.005684238097035781 
-0.01186017226490101 
0.009405530686443737 
-0.02228905913893243 
0 
-0.01186017226490101 
-0.009405530686443737 
-0.003658453428834369 
-0.005684238097035781 
0.01061688475049654 
0.007374611547189195 
0.01058008228811883 
0.007162933389034579 
0.01291865321655426 
0 
0.01058008228811883 
-0.007162933389034579 
0.01061688475049654 
-0.007374611547189195 
-0.004530706258214908 
-0.0006676092768133175 
-0.01169638383451412 
-0.004156153264759951 
-0.009530980640892847 
0 
-0.01169638383451412 
0.004156153264759951 
-0.004530706258214908 
0.0006676092768133175 
-0.008926738624953639 
-0.00340581335991407 
-0.004245829172252026 
-0.01204108814503513 
0.00989126792651847 
0 
-0.004245829172252026 
0.01204108814503513 
-0.008926738624953639 
0.00340581335991407 
-0.01692256673502307 
0.003232218170630994 
-0.02353833927587673 
-0.005426378954656821 
-0.02448739956835989 
0 
-0.02353833927587673 
0.005426378954656821 
-0.01692256673502307 
-0.003232218170630994 
0.003714988253176708 
-0.004504501605305251 
0.01550784676294206 
-0.00477231118346975 
0.0209135569466727 
0 
0.01550784676294206 
0.00477231118346975 
0.003714988253176708 
0.004504501605305251 
0.002004612337194518 
-0.002296228344492771 
0.003969492764192195 
0.002872864444613947 
-0.002559201817721491 
0 
0.003969492764192195 
-0.002872864444613947 
0.002004612337194518 
0.002296228344492771 
0.00147710249862764 
0.00284799380261253 
-0.006342875158251656 
0.01232901639299158 
-0.02359998237697478 
0 
-0.006342875158251656 
-0.01232901639299158 
0.00147710249862764 
-0.00284799380261253 
-0.0001346898352776134 
0.004335115295664405 
-0.004391514847096803 
0.0045091367745738 
-0.00924562580585263 
0 
-0.004391514847096803 
-0.0045091367745738 
-0.0001346898352776134 
-0.004335115295664405 
-0.0004851010061669692 
-0.0008357502775222887 
0.008227218862513546 
-0.007964348006758503 
0.02056016721545797 
0 
0.008227218862513546 
0.007964348006758503 
-0.0004851010061669692 
0.0008357502775222887 
-0.001707385186000238 
-0.01424067798206826 
0.005937674267940164 
-0.01238871267429618 
0.005463826950862533 
0 
0.005937674267940164 
0.01238871267429618 
-0.001707385186000238 
0.01424067798206826 
0.007878896373496968 
0.0003365682424600489 
0.01011150410073769 
0.00792567098245466 
0.002301366428020216 
0 
0.01011150410073769 
-0.00792567098245466 
0.007878896373496968 
-0.0003365682424600489 
-0.00205004322503215 
0.007888903651775598 
-0.0176430312335244 
0.01207732025562226 
-0.03404175566731415 
0 
-0.0176430312335244 
-0.01207732025562226 
-0.00205004322503215 
-0.007888903651775598 
0.0200010925243301 
0.003349681914295795 
0.01876340724319541 
0.01652611682241683 
0.005882994439577622 
0 
0.01876340724319541 
-0.01652611682241683 
0.0200010925243301 
-0.003349681914295795 
0.00673318296452019 
-0.0004571578096004839 
0.01101162514655382 
0.003548291511608335 
0.0101294537295325 
0 
0.01101162514655382 
-0.003548291511608335 
0.00673318296452019 
0.0004571578096004839 
-0.009163003370893113 
-0.0001594566212063039 
-0.02028887401470836 
0.005078663492616073 
-0.03805190729912896 
0 
-0.02028887401470836 
-0.005078663492616073 
-0.009163003370893113 
0.0001594566212063039 
-0.001086639078162576 
-0.004123666368922314 
0.007016526027532359 
-0.009073769914222573 
0.01662992292592193 
0 
0.007016526027532359 
0.009073769914222573 
-0.001086639078162576 
0.004123666368922314 
0.001747167300658461 
-0.002712377808949583 
0.01026941445621555 
-0.002705412841707777 
0.01387517824019004 
0 
0.01026941445621555 
0.002705412841707777 
0.001747167300658461 
0.002712377808949583 
-0.007618534206601986 
0.00410284763619345 
-0.006139856355355625 
-0.004364287936993839 
0.0004960258986116253 
0 
-0.006139856355355625 
0.004364287936993839 
-0.007618534206601986 
-0.00410284763619345 
-0.0006228825078865895 
-0.0004039268228425324 
-0.004069244963730136 
0.001675444067033712 
-0.009286644450371331 
0 
-0.004069244963730136 
-0.001675444067033712 
-0.0006228825078865895 
0.0004039268228425324 
-0.006053738531281243 
-0.000496391976512789 
-0.01053316882418183 
0.002628248610716312 
-0.02072218786578305 
0 
-0.01053316882418183 
-0.002628248610716312 
-0.006053738531281243 
0.000496391976512789 
0.003565458322790102 
0.003078324454514744 
0.004658038674793414 
0.005375570041817433 
-0.0007835635327266741 
0 
0.004658038674793414 
-0.005375570041817433 
0.003565458322790102 
-0.003078324454514744 
-0.0001371057455693802 
0.003908187768131331 
-0.007959736784257493 
0.0101896932353899 
-0.02187432845177666 
0 
-0.007959736784257493 
-0.0101896932353899 
-0.0001371057455693802 
-0.003908187768131331 
-0.00128647269420719 
0.002095559543122668 
-0.004607906862736427 
0.001287736894491926 
-0.00972166326967285 
0 
-0.004607906862736427 
-0.001287736894491926 
-0.00128647269420719 
-0.002095559543122668 
-6.485936203753133e-05 
0.00012001568666587 
0.009028074541624503 
-0.001748318331985885 
0.01079654135903926 
0 
0.009028074541624503 
0.001748318331985885 
-6.485936203753133e-05 
-0.00012001568666587 
-0.004318633698837852 
-0.00767219678424343 
4.823403784171975e-05 
-0.01341483142937315 
0.01152792686518608 
0 
4.823403784171975e-05 
0.01341483142937315 
-0.004318633698837852 
0.00767219678424343 
-0.01986993828434928 
-0.008040275727411566 
-0.02818725452278629 
-0.01688388008360622 
-0.02840497938113623 
0 
-0.02818725452278629 
0.01688388008360622 
-0.01986993828434928 
0.008040275727411566 
-0.003845198645672278 
0.006437716938331266 
-0.01213229316377 
0.005449689868536109 
-0.01642529476114962 
0 
-0.01213229316377 
-0.005449689868536109 
-0.003845198645672278 
-0.006437716938331266 
0.0008522657140792308 
0.0001341169544132604 
0.001445862557283005 
-0.002374121987442425 
0.007574145813359331 
0 
0.001445862557283005 
0.002374121987442425 
0.0008522657140792308 
-0.0001341169544132604 
-0.0008062542994430492 
-0.002135189892573142 
0.008490463505108235 
-0.008821550138029649 
0.01948336190258135 
0 
0.008490463505108235 
0.008821550138029649 
-0.0008062542994430492 
0.002135189892573142 
-0.0009127795498115634 
-0.002314719635812326 
-0.004548320932113523 
-0.002517889490187437 
-0.004503439811315078 
0 
-0.004548320932113523 
0.002517889490187437 
-0.0009127795498115634 
0.002314719635812326 
0.002257710689586395 
-0.0005727546435504837 
-0.004592302562292147 
-0.001657481292884973 
-0.002035933882155735 
0 
-0.004592302562292147 
0.001657481292884973 
0.002257710689586395 
0.0005727546435504837 
0.006824540803368672 
-0.005154260005490212 
0.01346995475239474 
-0.008125677234157459 
0.02884312477253574 
0 
0.01346995475239474 
0.008125677234157459 
0.006824540803368672 
0.005154260005490212 
-0.005819140105389626 
-0.0009613434972419668 
0.009578185489202511 
-0.01068882523128829 
0.02583446157761095 
0 
0.009578185489202511 
0.01068882523128829 
-0.005819140105389626 
0.0009613434972419668 
-0.01610722600214645 
-0.002808997806154763 
-0.02483463351640413 
-0.006570400015950897 
-0.03178696877615179 
0 
-0.02483463351640413 
0.006570400015950897 
-0.01610722600214645 
0.002808997806154763 
-0.002513166808397561 
0.00407445768414084 
-0.006811231194569906 
0.006335723366974116 
-0.01419343848641439 
0 
-0.006811231194569906 
-0.006335723366974116 
-0.002513166808397561 
-0.00407445768414084 
0.00247074676173746 
-0.001099587151520313 
0.002643075808433684 
0.003416835167988702 
-0.002359220480464308 
0 
0.002643075808433684 
-0.003416835167988702 
0.00247074676173746 
0.001099587151520313 
-0.004674636057287503 
-0.002030482025150927 
-0.002540404518603725 
0.0004605253846076514 
-0.01036919894227498 
0 
-0.002540404518603725 
-0.0004605253846076514 
-0.004674636057287503 
0.002030482025150927 
-0.00244019561168391 
0.005325586110723417 
-0.0062440805928579 
0.005090645825261907 
-0.0151810685033236 
0 
-0.0062440805928579 
-0.005090645825261907 
-0.00244019561168391 
-0.005325586110723417 
0.002913310002993579 
0.006518955509258148 
-0.004077020644545242 
0.009233068694801231 
-0.01049087377693724 
0 
-0.004077020644545242 
-0.009233068694801231 
0.002913310002993579 
-0.006518955509258148 
0.01018988427258326 
-0.01082069793757805 
0.03314938722003689 
-0.0122772661822448 
0.0539611378934864 
0 
0.03314938722003689 
0.0122772661822448 
0.01018988427258326 
0.01082069793757805 
-0.007379957239872037 
-0.01057494837711909 
0.0004278848255477579 
-0.01532083515830644 
0.008163735384038313 
0 
0.0004278848255477579 
0.01532083515830644 
-0.007379957239872037 
0.01057494837711909 
-0.003390976437234388 
-0.006471512307646176 
0.006148427937588734 
-0.008095557831992875 
0.009673088167059146 
0 
0.006148427937588734 
0.008095557831992875 
-0.003390976437234388 
0.006471512307646176 
-0.0129147962909768 
-0.002049117009233476 
-0.01834508814101897 
-0.004287666724975763 
-0.02443240892629352 
0 
-0.01834508814101897 
0.004287666724975763 
-0.0129147962909768 
0.002049117009233476 
-1.218800503276069e-05 
-0.0004350300440086514 
-0.001137641263039596 
0.004326724785460794 
-0.009891821913207321 
0 
-0.001137641263039596 
-0.004326724785460794 
-1.218800503276069e-05 
0.0004350300440086514 
0.006472667252138203 
0.001969009167972474 
0.008612700470446193 
0.00681253566775052 
0.0009158720941334698 
0 
0.008612700470446193 
-0.00681253566775052 
0.006472667252138203 
-0.001969009167972474 
-0.0001783769084637757 
0.004146143075397576 
-0.007855106826258952 
0.008901298041479119 
-0.01984042420315909 
0 
-0.007855106826258952 
-0.008901298041479119 
-0.0001783769084637757 
-0.004146143075397576 
0.004972370119973236 
0.001148862736185063 
0.001845557356850885 
0.00494352746391908 
0.0001392613528550542 
0 
0.001845557356850885 
-0.00494352746391908 
0.004972370119973236 
-0.001148862736185063 
-0.00227808263350886 
-0.006431114915984225 
0.002173637936268528 
-0.01170294921698478 
0.01212212773468627 
0 
0.002173637936268528 
0.01170294921698478 
-0.00227808263350886 
0.006431114915984225 
-0.0008790340314933449 
-0.00578753281945086 
0.01114007645633896 
-0.008167303489305786 
0.01752292436903587 
0 
0.01114007645633896 
0.008167303489305786 
-0.0008790340314933449 
0.00578753281945086 
-0.008998157502627216 
-0.003030484029889681 
-0.007762170828871752 
-0.003651830163153615 
-0.01381436319035517 
0 
-0.007762170828871752 
0.003651830163153615 
-0.008998157502627216 
0.003030484029889681 
0.001762197096140793 
-0.008577059120312945 
0.0050788768055208 
-0.003241954379734594 
-0.00313597936505164 
0 
0.0050788768055208 
0.003241954379734594 
0.001762197096140793 
0.008577059120312945 
0.00375679037938758 
-0.005390071819923637 
0.004480488232345353 
0.005809112982744116 
-0.01199822701483528 
0 
0.004480488232345353 
-0.005809112982744116 
0.00375679037938758 
0.005390071819923637 
-0.006721866748491258 
0.000184026963111939 
0.001774975190819226 
-0.002310815686775268 
-0.001115950596215064 
0 
0.001774975190819226 
0.002310815686775268 
-0.006721866748491258 
-0.000184026963111939 
-9.328395093296849e-06 
-0.001016210036377787 
-0.005382174156462272 
0.00616428101844861 
-0.02020589029789275 
0 
-0.005382174156462272 
-0.00616428101844861 
-9.328395093296849e-06 
0.001016210036377787 
0.003696672126005782 
-0.004459669767847154 
0.00655922612254434 
0.005242136015243457 
-0.004898845175804131 
0 
0.00655922612254434 
-0.005242136015243457 
0.003696672126005782 
0.004459669767847154 
-0.002662794962926395 
-0.01216601830480906 
0.0139388705973316 
-0.01582252761876207 
0.02151283370036809 
0 
0.0139388705973316 
0.01582252761876207 
-0.002662794962926395 
0.01216601830480906 
-0.00373091175423754 
-0.009884750919294857 
0.00274393961955939 
-0.01271644340381527 
0.006465144479253417 
0 
0.00274393961955939 
0.01271644340381527 
-0.00373091175423754 
0.009884750919294857 
-0.009075861002803293 
-0.004902227282402073 
-0.014655223828132 
-0.01027880348415102 
-0.01327603725740389 
0 
-0.014655223828132 
0.01027880348415102 
-0.009075861002803293 
0.004902227282402073 
-0.002164300171161765 
-0.008608399059032075 
0.00567022571115297 
-0.01135118498224109 
0.0140474188311874 
0 
0.00567022571115297 
0.01135118498224109 
-0.002164300171161765 
0.008608399059032075 
0.01091165749305052 
0.001184126022722154 
0.01249576310872379 
0.008594616232613825 
0.007070891151553612 
0 
0.01249576310872379 
-0.008594616232613825 
0.01091165749305052 
-0.001184126022722154 
0.008949269835866608 
0.005525964564064362 
0.002569898626891171 
0.01269428969984278 
-0.008726455529639335 
0 
0.002569898626891171 
-0.01269428969984278 
0.008949269835866608 
-0.005525964564064362 
-0.006619965029258442 
0.007363113580258881 
-0.01636122140382867 
0.006456539597829025 
-0.02664226194292978 
0 
-0.01636122140382867 
-0.006456539597829025 
-0.006619965029258442 
-0.007363113580258881 
0.002744453006068753 
0.007221334949948419 
-0.002686908490994939 
0.01032291890552758 
-0.00993916950002041 
0 
-0.002686908490994939 
-0.01032291890552758 
0.002744453006068753 
-0.007221334949948419 
-0.001323914453319463 
-0.0008676131126479393 
0.002366897268269891 
-0.002119160596823627 
0.003987102136771491 
0 
0.002366897268269891 
0.002119160596823627 
-0.001323914453319463 
0.0008676131126479393 
0.00666905629875357 
-0.004714766394940929 
0.02155021543612411 
-0.008089817287367497 
0.0351617847957429 
0 
0.02155021543612411 
0.008089817287367497 
0.00666905629875357 
0.004714766394940929 
-0.01062494898798222 
0.003427885013684793 
-0.02033285150150814 
-0.004332875524038184 
-0.02087614325621434 
0 
-0.02033285150150814 
0.004332875524038184 
-0.01062494898798222 
-0.003427885013684793 
-0.01096160466451171 
-0.008141976091950302 
-0.01045376161672826 
-0.01496478461918211 
-0.006422125192890478 
0 
-0.01045376161672826 
0.01496478461918211 
-0.01096160466451171 
0.008141976091950302 
-0.008042310526481524 
-0.004237683853010285 
-0.003684985967423395 
-0.01157094819410467 
0.003941789048715469 
0 
-0.003684985967423395 
0.01157094819410467 
-0.008042310526481524 
0.004237683853010285 
-0.006372097604879728 
0.002515362469946704 
-0.006193903394729233 
-0.001102005948404564 
-0.008280150871150195 
0 
-0.006193903394729233 
0.001102005948404564 
-0.006372097604879728 
-0.002515362469946704 
0.003662777821603434 
0.006128526358200408 
-0.00455963335946719 
0.01314388018760859 
-0.0180865013583622 
0 
-0.00455963335946719 
-0.01314388018760859 
0.003662777821603434 
-0.006128526358200408 
0.006177043154330847 
0.002164205862341468 
-0.0008461174101034577 
0.006661573188593508 
-0.005089044816144559 
0 
-0.0008461174101034577 
-0.006661573188593508 
0.006177043154330847 
-0.002164205862341468 
-0.005255392309690055 
-0.005211277197840752 
0.00556818111719507 
-0.01521057640852194 
0.02023094047451541 
0 
0.00556818111719507 
0.01521057640852194 
-0.005255392309690055 
0.005211277197840752 
-0.003106887463917427 
-0.004130946358973385 
0.007699203758800247 
-0.01118725721493203 
0.01913160479644355 
0 
0.007699203758800247 
0.01118725721493203 
-0.003106887463917427 
0.004130946358973385 
-0.01632600908437 
-0.007863893519941724 
-0.01409664389657715 
-0.0161443557507645 
-0.008875001527434714 
0 
-0.01409664389657715 
0.0161443557507645 
-0.01632600908437 
0.007863893519941724 
-0.004356661224094468 
-0.007357280814804222 
0.007729429085601776 
-0.009736573276374696 
0.01300088406743441 
0 
0.007729429085601776 
0.009736573276374696 
-0.004356661224094468 
0.007357280814804222 
0.009839829729971343 
-0.005206650542588435 
0.01835445021367758 
0.004959927504436254 
0.01235150115632778 
0 
0.01835445021367758 
-0.004959927504436254 
0.009839829729971343 
0.005206650542588435 
0.01016956774319256 
0.002172061277268567 
0.0119241078569293 
0.01288143473757188 
-0.0005835816670467679 
0 
0.0119241078569293 
-0.01288143473757188 
0.01016956774319256 
-0.002172061277268567 
-0.002797075790033763 
0.006249943694873119 
-0.01431817179585146 
0.0113308914554095 
-0.03357794930317762 
0 
-0.01431817179585146 
-0.0113308914554095 
-0.002797075790033763 
-0.006249943694873119 
0.00940319140011376 
0.00380105388258061 
0.004439277838032331 
0.01654950373923452 
-0.01309052015923425 
0 
0.004439277838032331 
-0.01654950373923452 
0.00940319140011376 
-0.00380105388258061 
-0.004451937732750261 
-0.001086494326453757 
0.002164527589186776 
-0.009625572070614248 
0.01413809634412654 
0 
0.002164527589186776 
0.009625572070614248 
-0.004451937732750261 
0.001086494326453757 
-0.003529231823586825 
-0.004515887648531032 
0.009244258681289358 
-0.009432924149161385 
0.01731289891035107 
0 
0.009244258681289358 
0.009432924149161385 
-0.003529231823586825 
0.004515887648531032 
-0.000525347100520854 
-0.004056126833117293 
0.009274525037471211 
-0.008364534508135433 
0.01852629957165498 
0 
0.009274525037471211 
0.008364534508135433 
-0.000525347100520854 
0.004056126833117293 
0.002001940996245275 
0.003760679488937194 
0.009104869937568172 
-1.101005802599301e-05 
0.01919783229346151 
0 
0.009104869937568172 
1.101005802599301e-05 
0.002001940996245275 
-0.003760679488937194 
0.0009403458072371541 
-0.009513975873811857 
0.01427845095843206 
-0.007198949529342301 
0.01405377402621318 
0 
0.01427845095843206 
0.007198949529342301 
0.0009403458072371541 
0.009513975873811857 
-0.009806774145104547 
0.002488182694114982 
-0.01465527157443423 
0.00347279491803418 
-0.03016925863277468 
0 
-0.01465527157443423 
-0.00347279491803418 
-0.009806774145104547 
-0.002488182694114982 
0.001900405142722723 
0.007851043965844311 
-0.01670395476775793 
0.0169342170504927 
-0.04063413154813344 
0 
-0.01670395476775793 
-0.0169342170504927 
0.001900405142722723 
-0.007851043965844311 
0.002132603203652679 
0.007347532491167916 
-0.01266773730820502 
0.01379478482323558 
-0.02900532438633639 
0 
-0.01266773730820502 
-0.01379478482323558 
0.002132603203652679 
-0.007347532491167916 
-0.001318283794601544 
-0.000549914624707191 
0.002537076775523285 
0.001600879497337409 
-0.002140054678913968 
0 
0.002537076775523285 
-0.001600879497337409 
-0.001318283794601544 
0.000549914624707191 
0.0048577153859019 
-0.003054716811082624 
0.0189763694819767 
-0.005751674688993934 
0.03245601940689741 
0 
0.0189763694819767 
0.005751674688993934 
0.0048577153859019 
0.003054716811082624 
-0.006817896259549244 
0.007855155682806375 
-0.0097338594039592 
-0.002417418352099712 
0.0004592284227436878 
0 
-0.0097338594039592 
0.002417418352099712 
-0.006817896259549244 
-0.007855155682806375 
-0.001200109020233688 
-0.002748399460043506 
-0.0003890302652096099 
-0.004180959512308134 
0.003166151545379468 
0 
-0.0003890302652096099 
0.004180959512308134 
-0.001200109020233688 
0.002748399460043506 
0.001846559905558684 
-0.005306669088177771 
0.008380989384139594 
-0.004582300227677373 
0.01105238729697239 
0 
0.008380989384139594 
0.004582300227677373 
0.001846559905558684 
0.005306669088177771 
-0.0003503331128458722 
-0.003114591113080434 
-0.003952225961041635 
0.001540980838571276 
-0.009497307957500744 
0 
-0.003952225961041635 
-0.001540980838571276 
-0.0003503331128458722 
0.003114591113080434 
0.001503737469682669 
0.007121916810854395 
-0.003430591295612463 
0.007408061232382326 
-0.008257732519864011 
0 
-0.003430591295612463 
-0.007408061232382326 
0.001503737469682669 
-0.007121916810854395 
0.01287033124670207 
0.004516988375220203 
0.009912237192638984 
0.009192491335774624 
0.007472077251066394 
0 
0.009912237192638984 
-0.009192491335774624 
0.01287033124670207 
-0.004516988375220203 
-0.004442998935847709 
-0.004319316869309892 
-0.0004093143036682073 
-0.005388214302123898 
0.0005775561909212076 
0 
-0.0004093143036682073 
0.005388214302123898 
-0.004442998935847709 
0.004319316869309892 
0.00292920973647595 
0.0002546300789311469 
0.009935506601543681 
-0.002955307301495411 
0.02049711100736244 
0 
0.009935506601543681 
0.002955307301495411 
0.00292920973647595 
-0.0002546300789311469 
-0.003059467470598029 
-0.0003369647039665709 
-0.006474850901805205 
-0.00302885719965752 
-0.003953191574039544 
0 
-0.006474850901805205 
0.00302885719965752 
-0.003059467470598029 
0.0003369647039665709 
-0.009790920583343455 
0.0003757508391559831 
-0.007425334499496383 
-0.006525071978826428 
-0.002736189479974246 
0 
-0.007425334499496383 
0.006525071978826428 
-0.009790920583343455 
-0.0003757508391559831 
-0.002004051238560324 
-0.009531871611810622 
0.01187178355298019 
-0.008813409090383056 
0.01565761004892229 
0 
0.01187178355298019 
0.008813409090383056 
-0.002004051238560324 
0.009531871611810622 
0.005180607226054967 
0.001257222392400364 
0.005820247837351101 
0.002234412444519374 
0.006103593847820878 
0 
0.005820247837351101 
-0.002234412444519374 
0.005180607226054967 
-0.001257222392400364 
0.009257826303837841 
-0.001531836947510045 
0.01415509301474508 
0.003756132501492916 
0.01282820250106473 
0 
0.01415509301474508 
-0.003756132501492916 
0.009257826303837841 
0.001531836947510045 
-0.002676925745471401 
-0.004872162826783528 
-0.0014217421908008 
0.001703123675773625 
-0.01136582694580603 
0 
-0.0014217421908008 
-0.001703123675773625 
-0.002676925745471401 
0.004872162826783528 
0.005778482012295145 
0.003768045455450193 
0.007850552604703218 
0.0008964943145184498 
0.01705414581953748 
0 
0.007850552604703218 
-0.0008964943145184498 
0.005778482012295145 
-0.003768045455450193 
-0.003648062902622161 
-0.009726214476101344 
0.00751759568871523 
-0.01353038507563427 
0.01868226400191642 
0 
0.00751759568871523 
0.01353038507563427 
-0.003648062902622161 
0.009726214476101344 
-0.008446045846696282 
0.00637469032832574 
-0.0196818509497279 
0.001983354243757281 
-0.02452041076864234 
0 
-0.0196818509497279 
-0.001983354243757281 
-0.008446045846696282 
-0.00637469032832574 
-0.001173258113819921 
0.000394284190504652 
-0.006047195967949021 
0.0004339855794051274 
-0.007051946489108335 
0 
-0.006047195967949021 
-0.0004339855794051274 
-0.001173258113819921 
-0.000394284190504652 
0.001241754954473053 
-0.003901585192891915 
0.008451949962245763 
-0.0006463219750924911 
0.005577277691680285 
0 
0.008451949962245763 
0.0006463219750924911 
0.001241754954473053 
0.003901585192891915 
0.00615288455345665 
-0.0003064332711171172 
0.005765399048113091 
0.005022792324450947 
-0.002175319238375927 
0 
0.005765399048113091 
-0.005022792324450947 
0.00615288455345665 
0.0003064332711171172 
0.007015634147123057 
0.001213312315063914 
0.008463809048616421 
0.005404385465952141 
0.005647739017428595 
0 
0.008463809048616421 
-0.005404385465952141 
0.007015634147123057 
-0.001213312315063914 
0.01315145385996353 
0.001554323876133482 
0.01555231989426064 
0.008189540685411029 
0.008869480849788752 
0 
0.01555231989426064 
-0.008189540685411029 
0.01315145385996353 
-0.001554323876133482 
-0.001392745177272026 
-0.006665605654671971 
0.01146159526171258 
-0.01017340402818258 
0.02084213760407357 
0 
0.01146159526171258 
0.01017340402818258 
-0.001392745177272026 
0.006665605654671971 
0.007865046767958496 
0.001125752402324058 
0.009160244934749486 
0.002710544439445312 
0.01172972933170703 
0 
0.009160244934749486 
-0.002710544439445312 
0.007865046767958496 
-0.001125752402324058 
-0.00477227242688269 
0.002608164297963938 
-0.01275673540915049 
-0.003003567666700621 
-0.01090700792977559 
0 
-0.01275673540915049 
0.003003567666700621 
-0.00477227242688269 
-0.002608164297963938 
0.004196991061524594 
-0.0017009495182659 
-0.002807483637135416 
0.005946724688763567 
-0.01553584498656406 
0 
-0.002807483637135416 
-0.005946724688763567 
0.004196991061524594 
0.0017009495182659 
0.002305670819759533 
-0.006841765425142088 
0.01272098079104526 
-0.003666458508444269 
0.01127297060664216 
0 
0.01272098079104526 
0.003666458508444269 
0.002305670819759533 
0.006841765425142088 
-0.001092105984772086 
-0.0004970740246345428 
-0.001021760754735672 
0.002434393325998786 
-0.007140226269146038 
0 
-0.001021760754735672 
-0.002434393325998786 
-0.001092105984772086 
0.0004970740246345428 
0.003733868074176548 
-0.001920063289195989 
-0.00182206583625276 
0.007074097255586845 
-0.01461470575064891 
0 
-0.00182206583625276 
-0.007074097255586845 
0.003733868074176548 
0.001920063289195989 
0.002106682240203532 
0.001118199965664877 
0.001922607775758055 
0.001061317444310651 
0.002485100609192139 
0 
0.001922607775758055 
-0.001061317444310651 
0.002106682240203532 
-0.001118199965664877 
0.003855167539878434 
0.00428419135697379 
0.005793424949519965 
0.0004528599170408705 
0.01541412703398579 
0 
0.005793424949519965 
-0.0004528599170408705 
0.003855167539878434 
-0.00428419135697379 
-0.008221199556383757 
-0.0004873908838678713 
-0.009211649088703587 
-0.005828118221891269 
-0.005011035269550488 
0 
-0.009211649088703587 
0.005828118221891269 
-0.008221199556383757 
0.0004873908838678713 
-0.002875280479692634 
0.001724344687408121 
-0.007788847156471474 
0.00197047329618066 
-0.009508625882124798 
0 
-0.007788847156471474 
-0.00197047329618066 
-0.002875280479692634 
-0.001724344687408121 
-0.001959946091617021 
-0.003429543135490533 
-0.00168723111966547 
-0.00135737772866211 
-0.004890724905743037 
0 
-0.00168723111966547 
0.00135737772866211 
-0.001959946091617021 
0.003429543135490533 
0.007508929215434768 
-0.01008658695108951 
0.02511353611165572 
-0.008110354873170847 
0.03377132215851209 
0 
0.02511353611165572 
0.008110354873170847 
0.007508929215434768 
0.01008658695108951 
0.004437664223790159 
0.003269871558630404 
0.002072642140378916 
0.005405870263424577 
-0.002748460226057027 
0 
0.002072642140378916 
-0.005405870263424577 
0.004437664223790159 
-0.003269871558630404 
-0.008152222457805645 
0.009997661568653473 
-0.01949174127508679 
0.008569994371232037 
-0.03078975739221285 
0 
-0.01949174127508679 
-0.008569994371232037 
-0.008152222457805645 
-0.009997661568653473 
0.0003107585389584053 
0.00136438865151361 
6.338824854541793e-05 
0.0009476255600700473 
-0.001758079252773153 
0 
6.338824854541793e-05 
-0.0009476255600700473 
0.0003107585389584053 
-0.00136438865151361 
-0.001284465539762297 
0.001196504347423397 
-0.001542591817058891 
-0.0003555843201379536 
0.001844238182982491 
0 
-0.001542591817058891 
0.0003555843201379536 
-0.001284465539762297 
-0.001196504347423397 
-0.00548209985028012 
0.0009357953294749679 
-0.00239878537298206 
-0.005688408036852118 
0.003657903481286567 
0 
-0.00239878537298206 
0.005688408036852118 
-0.00548209985028012 
-0.0009357953294749679 
-0.009323823590241826 
-0.00419663550338479 
-0.006342433409603908 
-0.007421278178492848 
-0.003810500484449087 
0 
-0.006342433409603908 
0.007421278178492848 
-0.009323823590241826 
0.00419663550338479 
0.00256792375438404 
-0.003016108016781165 
0.005641377902431227 
-0.001243839166212849 
0.007060165749344243 
0 
0.005641377902431227 
0.001243839166212849 
0.00256792375438404 
0.003016108016781165 
-0.000142248664419291 
-0.002861379358464729 
0.008761578562614475 
-0.006262502071093618 
0.01631273197815576 
0 
0.008761578562614475 
0.006262502071093618 
-0.000142248664419291 
0.002861379358464729 
-0.005473306895888423 
0.00130982944819438 
-0.003659385408576614 
0.000574399472130022 
-0.006853634353755108 
0 
-0.003659385408576614 
-0.000574399472130022 
-0.005473306895888423 
-0.00130982944819438 
-0.00152024123537961 
0.007771990457451424 
-0.01245410558454665 
0.007579459840180327 
-0.01848221535098995 
0 
-0.01245410558454665 
-0.007579459840180327 
-0.00152024123537961 
-0.007771990457451424 
-0.01092073704035 
0.0006828858102124724 
-0.0174557477308082 
-0.003927135437299166 
-0.01977189105920157 
0 
-0.0174557477308082 
0.003927135437299166 
-0.01092073704035 
-0.0006828858102124724 
0.002234074156156703 
0.002914797033797499 
0.009055015567545966 
-0.000349386540173505 
0.01609942989848278 
0 
0.009055015567545966 
0.000349386540173505 
0.002234074156156703 
-0.002914797033797499 
-0.007882817027127164 
-0.003547431478464827 
0.002085989479858445 
-0.01333165709495123 
0.01805316621996915 
0 
0.002085989479858445 
0.01333165709495123 
-0.007882817027127164 
0.003547431478464827 
-0.001556120092647619 
0.006123747281183876 
-0.005634808103576281 
-0.002009872659114401 
0.004508416734398845 
0 
-0.005634808103576281 
0.002009872659114401 
-0.001556120092647619 
-0.006123747281183876 
-0.000570125280574742 
0.0002931342017489298 
-0.001256813575131744 
-0.0007707018858182847 
5.626467998384413e-05 
0 
-0.001256813575131744 
0.0007707018858182847 
-0.000570125280574742 
-0.0002931342017489298 
-0.003393425411358831 
-0.0008219710478778196 
-0.00143138290185339 
-0.001942550808590178 
-0.004207725796379617 
0 
-0.00143138290185339 
0.001942550808590178 
-0.003393425411358831 
0.0008219710478778196 
0.008945833519659914 
0.01040569591028365 
0.002802445325056559 
0.01183585424445885 
7.348076052118972e-05 
0 
0.002802445325056559 
-0.01183585424445885 
0.008945833519659914 
-0.01040569591028365 
-0.01350212832835986 
0.002090932972277007 
-0.02629021794442007 
0.003772093456708428 
-0.04173769173687467 
0 
-0.02629021794442007 
-0.003772093456708428 
-0.01350212832835986 
-0.002090932972277007 
-0.008824576131161858 
-0.001378903425709005 
-0.01135102317908281 
-0.004510425991695499 
-0.01457661672147735 
0 
-0.01135102317908281 
0.004510425991695499 
-0.008824576131161858 
0.001378903425709005 
0.0061186734393925 
-0.01149770024732303 
0.01747805425718418 
-0.008066467023223028 
0.0243604214593549 
0 
0.01747805425718418 
0.008066467023223028 
0.0061186734393925 
0.01149770024732303 
0.003879697436318144 
-0.01156517456785839 
0.02228881295063582 
-0.01279469887060979 
0.03512034819347393 
0 
0.02228881295063582 
0.01279469887060979 
0.003879697436318144 
0.01156517456785839 
-0.0003552906298050737 
-0.003731695121469609 
0.004092066442249144 
-0.005344295304153835 
0.00856574397505893 
0 
0.004092066442249144 
0.005344295304153835 
-0.0003552906298050737 
0.003731695121469609 
0.0006558468261804925 
0.005817644273210684 
-0.01064119137368289 
0.006350334735908965 
-0.01693204506829027 
0 
-0.01064119137368289 
-0.006350334735908965 
0.0006558468261804925 
-0.005817644273210684 
0.005255721723410728 
-0.0002723051049818341 
0.00873562162355712 
0.003738044475467154 
0.00720439635139487 
0 
0.00873562162355712 
-0.003738044475467154 
0.005255721723410728 
0.0002723051049818341 
0.001729439224189752 
-0.0004597950704201132 
-0.001745127194721207 
0.004845804699087472 
-0.009805858253708315 
0 
-0.001745127194721207 
-0.004845804699087472 
0.001729439224189752 
0.0004597950704201132 
-0.00873355014672093 
0.006177400846685428 
-0.01869708226162712 
0.005526343627604462 
-0.02883324625307995 
0 
-0.01869708226162712 
-0.005526343627604462 
-0.00873355014672093 
-0.006177400846685428 
-0.01223628351000381 
0.00119924846567943 
-0.02496191726368402 
0.0002318320969460505 
-0.03362546451232046 
0 
-0.02496191726368402 
-0.0002318320969460505 
-0.01223628351000381 
-0.00119924846567943 
0.0001784221729368635 
-0.007328125267208095 
0.01309679272065553 
-0.01108876701645957 
0.02413322638901875 
0 
0.01309679272065553 
0.01108876701645957 
0.0001784221729368635 
0.007328125267208095 
0.009285592094560847 
-0.004821645533655367 
0.02563430096824483 
-0.006118155735771956 
0.04151643576391225 
0 
0.02563430096824483 
0.006118155735771956 
0.009285592094560847 
0.004821645533655367 
-0.01519623212515311 
-0.01599737744188026 
-0.0140592876031136 
-0.02145304380576327 
-0.009399603679823487 
0 
-0.0140592876031136 
0.02145304380576327 
-0.01519623212515311 
0.01599737744188026 
-0.004855712546791758 
0.008748800080964226 
-0.01425288693747787 
0.004292088291106989 
-0.01447528387741947 
0 
-0.01425288693747787 
-0.004292088291106989 
-0.004855712546791758 
-0.008748800080964226 
0.001356120947183605 
0.007156600401275606 
-0.005058913714625568 
0.003012178488329978 
-0.001530632324790023 
0 
-0.005058913714625568 
-0.003012178488329978 
0.001356120947183605 
-0.007156600401275606 
-0.004456041014139147 
-0.007490952025848093 
-0.002543084880831367 
-0.006321667706069034 
-0.001074085591976009 
0 
-0.002543084880831367 
0.006321667706069034 
-0.004456041014139147 
0.007490952025848093 
0.004058688839408798 
0.006170577654091313 
-0.008241995659463321 
0.008445882069424102 
-0.01330253655277627 
0 
-0.008241995659463321 
-0.008445882069424102 
0.004058688839408798 
-0.006170577654091313 
-0.002768779402916347 
0.008156432621295345 
-0.01269677720505446 
0.003158019740513858 
-0.00858075247371288 
0 
-0.01269677720505446 
-0.003158019740513858 
-0.002768779402916347 
-0.008156432621295345 
-0.01170436924044557 
-0.007880957531665848 
-0.0125113747094705 
-0.01687582029396814 
-0.004833907676174435 
0 
-0.0125113747094705 
0.01687582029396814 
-0.01170436924044557 
0.007880957531665848 
0.009034535838752286 
-0.003500956095428663 
0.02534056721996089 
-0.009871432548884632 
0.04837250763148129 
0 
0.02534056721996089 
0.009871432548884632 
0.009034535838752286 
0.003500956095428663 
-0.003730785722293608 
-0.003740982336644957 
-0.01062240282736527 
-0.008227736073341006 
-0.004410463276644202 
0 
-0.01062240282736527 
0.008227736073341006 
-0.003730785722293608 
0.003740982336644957 
-0.005816571903901032 
-0.003656274376143218 
0.002100498997650744 
-0.01635480346039065 
0.02400777597747953 
0 
0.002100498997650744 
0.01635480346039065 
-0.005816571903901032 
0.003656274376143218 
0.002689497448529541 
-0.006103063809236798 
0.01466686255443005 
-0.01186163575889226 
0.03177151178272236 
0 
0.01466686255443005 
0.01186163575889226 
0.002689497448529541 
0.006103063809236798 
-0.0006518864071192096 
-0.001986963068766829 
0.007577769187999499 
-0.004860470510764931 
0.01438407621376725 
0 
0.007577769187999499 
0.004860470510764931 
-0.0006518864071192096 
0.001986963068766829 
-0.007172456151368183 
0.006231364447300164 
-0.01925826352444337 
0.003893481473989826 
-0.02453124657938785 
0 
-0.01925826352444337 
-0.003893481473989826 
-0.007172456151368183 
-0.006231364447300164 
-0.0007247916520389933 
0.005640405918100212 
-0.007866701179660559 
0.005762331488457981 
-0.01273643210455497 
0 
-0.007866701179660559 
-0.005762331488457981 
-0.0007247916520389933 
-0.005640405918100212 
-0.003558655754724644 
0.003254531924818162 
-0.003922898482482395 
-0.004531880163579583 
0.005993201936765232 
0 
-0.003922898482482395 
0.004531880163579583 
-0.003558655754724644 
-0.003254531924818162 
0.01211083760760416 
-0.002918329546678571 
0.02331947874659799 
-0.00658841240203111 
0.04335206924152621 
0 
0.02331947874659799 
0.00658841240203111 
0.01211083760760416 
0.002918329546678571 
-0.002149709591467572 
0.004845056633268196 
0.003018437194936334 
-0.004516702165689662 
0.01997048118914345 
0 
0.003018437194936334 
0.004516702165689662 
-0.002149709591467572 
-0.004845056633268196 
0.004573784349760759 
-0.003157461287051598 
0.004162868013613441 
-0.001100783720215824 
0.007145929583041353 
0 
0.004162868013613441 
0.001100783720215824 
0.004573784349760759 
0.003157461287051598 
0.0004330000241882318 
-0.004093719726619796 
0.01106589806046321 
-0.008447130023123086 
0.0221700779858468 
0 
0.01106589806046321 
0.008447130023123086 
0.0004330000241882318 
0.004093719726619796 
-0.006132691359321584 
-0.004140462099565515 
-0.002111952096920671 
-0.004331384444047413 
-0.005728071566976371 
0 
-0.002111952096920671 
0.004331384444047413 
-0.006132691359321584 
0.004140462099565515 
0.003906839428314966 
0.004146519641788938 
-0.006743995700155997 
0.009945115311191455 
-0.02088929032103169 
0 
-0.006743995700155997 
-0.009945115311191455 
0.003906839428314966 
-0.004146519641788938 
0.005684315984646108 
-1.955407854963334e-05 
0.008931339049955599 
0.003607598042176549 
0.009643090391253412 
0 
0.008931339049955599 
-0.003607598042176549 
0.005684315984646108 
1.955407854963334e-05 
-0.01367726284858123 
-0.01112335773491581 
-0.01600550242128493 
-0.01570235508098055 
-0.01146315343955141 
0 
-0.01600550242128493 
0.01570235508098055 
-0.01367726284858123 
0.01112335773491581 
0.0003467039508456159 
0.001869434040648556 
0.004289607056832352 
-0.0005747697771808248 
0.007874308859732636 
0 
0.004289607056832352 
0.0005747697771808248 
0.0003467039508456159 
-0.001869434040648556 
0.009185455188053091 
0.003940454147996669 
0.002160992278988122 
0.011043962677054 
-0.004693598796406684 
0 
0.002160992278988122 
-0.011043962677054 
0.009185455188053091 
-0.003940454147996669 
0.001052027095079532 
0.005992731818963623 
-0.007531756766435482 
0.004060525487378464 
-0.007397182011593294 
0 
-0.007531756766435482 
-0.004060525487378464 
0.001052027095079532 
-0.005992731818963623 
-0.00322375307457029 
0.001408066978213776 
0.005438989498917258 
-0.008385205682327885 
0.0227041154456896 
0 
0.005438989498917258 
0.008385205682327885 
-0.00322375307457029 
-0.001408066978213776 
-0.01233056707697393 
-0.006429858991964699 
-0.003697621665429005 
-0.01616517206291113 
0.01083095412710733 
0 
-0.003697621665429005 
0.01616517206291113 
-0.01233056707697393 
0.006429858991964699 
0.001146006732824555 
0.009038400129844422 
-0.01321178118617469 
0.0129948279120875 
-0.02477651210997872 
0 
-0.01321178118617469 
-0.0129948279120875 
0.001146006732824555 
-0.009038400129844422 
0.00718758880363956 
0.00398373387877365 
0.006771210277624944 
0.00376582402504353 
0.01333486741796468 
0 
0.006771210277624944 
-0.00376582402504353 
0.00718758880363956 
-0.00398373387877365 
-0.001393487694751605 
0.003638328809490077 
0.001007619763567194 
8.615959001287149e-05 
0.006311454401024455 
0 
0.001007619763567194 
-8.615959001287149e-05 
-0.001393487694751605 
-0.003638328809490077 
2.606445207954629e-05 
-0.00499901057724774 
0.007844143661156136 
-0.00150182270620669 
0.002517556124133745 
0 
0.007844143661156136 
0.00150182270620669 
2.606445207954629e-05 
0.00499901057724774 
0.009740940081330845 
-5.302441412416729e-05 
0.01395350251526314 
0.00605686235570021 
0.01108340470927327 
0 
0.01395350251526314 
-0.00605686235570021 
0.009740940081330845 
5.302441412416729e-05 
-0.0009141156804206002 
0.001202403849006228 
-0.003886919063207395 
-0.003339818319534416 
0.001919681494325323 
0 
-0.003886919063207395 
0.003339818319534416 
-0.0009141156804206002 
-0.001202403849006228 
0.003159963874087335 
-0.00186621180017701 
0.01400957085149357 
-0.001723760483088992 
0.01735460620384868 
0 
0.01400957085149357 
0.001723760483088992 
0.003159963874087335 
0.00186621180017701 
0.003365762627422765 
-0.003368858141259706 
0.007461685173369363 
0.004014696989924754 
-0.003874115515379326 
0 
0.007461685173369363 
-0.004014696989924754 
0.003365762627422765 
0.003368858141259706 
-0.01612351062258626 
0.002860473902913836 
-0.03619802315774146 
0.00356654108791686 
-0.0546052831085078 
0 
-0.03619802315774146 
-0.00356654108791686 
-0.01612351062258626 
-0.002860473902913836 
0.01465527755949337 
-0.0008345331555709317 
0.03074058700671313 
0.004755618973668991 
0.03153181905102779 
0 
0.03074058700671313 
-0.004755618973668991 
0.01465527755949337 
0.0008345331555709317 
-0.004832426167902033 
-0.0005861324701414678 
-0.01489747590940577 
-0.0003602093650393441 
-0.02232204508534213 
0 
-0.01489747590940577 
0.0003602093650393441 
-0.004832426167902033 
0.0005861324701414678 
0.0005232547900708729 
-0.002885108300039782 
0.00694593610741432 
-0.00773515646949074 
0.01608442518309747 
0 
0.00694593610741432 
0.00773515646949074 
0.0005232547900708729 
0.002885108300039782 
0.003092226712910664 
-0.006099752664842164 
0.0118899477888967 
-0.008629211461891672 
0.02249796503202553 
0 
0.0118899477888967 
0.008629211461891672 
0.003092226712910664 
0.006099752664842164 
-0.007595029264066288 
-0.01006943509906439 
-0.005302320566897997 
-0.01507188533657054 
0.0008416628247046833 
0 
-0.005302320566897997 
0.01507188533657054 
-0.007595029264066288 
0.01006943509906439 
-0.001983297316970409 
-0.0001230056217390999 
0.003211524686554655 
-0.0002807831823904122 
